0.061466 -0.042477 0.014882 0.004112 0.069000 0.007003 0.031385 -0.044498 -0.007722 -0.027856 0.040767 -0.027836 -0.007179 0.015390 0.052439 -0.015141
0.017921 0.187782 0.205095 -0.028178 -0.052975 0.216930 0.087175 -0.072963 -0.174313 -0.193180 0.126642 0.097614 -0.261772 0.181209 0.183445 -0.356257
0.076604 -0.108897 0.186506 0.010720 0.286904 0.197658 0.002455 -0.126164 0.115561 -0.116677 0.220839 -0.280397 0.135511 -0.056212 0.171729 -0.086023
0.249434 -0.205915 -0.270862 0.186558 0.151859 -0.269318 -0.012605 0.062451 0.066613 -0.076407 0.036960 0.263994 0.435451 0.124074 0.099400 0.161182
-1.227817 1.577090 1.217128 0.579816 -1.041476 1.282095 -0.779419 -0.836808 1.214326 -0.121711 -0.796875 -1.010980 -1.190927 -1.069104 0.958138 -0.634020
-0.089558 -0.066845 0.018234 -0.126884 -0.117300 -0.006627 0.109764 0.111207 -0.043479 0.033974 -0.017440 0.102311 0.052255 0.119919 -0.053504 0.017871
-0.053074 -0.296575 0.124207 -0.012401 0.203003 0.118209 -0.075503 0.050201 0.399694 -0.010672 0.204483 -0.096609 0.311175 -0.112518 0.022125 0.215765
0.078790 -0.043511 0.129036 -0.117888 0.014261 0.087737 0.152065 -0.053521 -0.124100 -0.056609 0.071086 0.020002 -0.111811 0.124972 0.110504 -0.107132
-0.171219 0.065711 0.136212 0.056827 -0.081796 0.186728 -0.072039 -0.034400 0.096926 -0.045097 0.007505 -0.058093 -0.039947 -0.068302 0.078335 -0.090538
0.008151 -0.000690 0.054196 -0.027664 0.031438 0.047516 0.028651 -0.014684 0.017172 -0.002432 0.069722 -0.040763 -0.035408 0.030739 -0.005595 -0.027943
0.022469 0.012844 0.006602 -0.002543 0.016141 0.018774 0.024871 0.003963 0.008031 0.013717 0.013149 -0.008302 -0.011013 0.007098 0.001138 0.010846
0.004673 0.053875 0.023362 0.018708 0.051417 0.040605 -0.012975 -0.040625 0.002784 0.043715 0.037392 -0.066548 -0.056493 -0.026619 -0.029804 0.010743
-0.117448 0.243011 0.251509 0.211834 0.014256 0.279647 -0.436635 -0.423432 0.487378 -0.153997 -0.213732 -0.401257 -0.133695 -0.642815 0.332772 -0.020247
0.042631 -0.098914 -0.018659 -0.136876 -0.043790 0.001140 0.190909 0.104125 -0.154805 0.053558 0.025689 0.137424 -0.071970 0.176493 0.047461 -0.023612
-0.078060 0.118014 0.175009 -0.009974 -0.093705 0.247523 -0.005884 -0.112000 0.104224 -0.088233 0.013103 -0.100601 -0.161579 -0.095180 0.130680 -0.166233
0.181545 0.437388 -0.350400 0.339865 0.139105 -0.276435 -0.363999 -0.383142 -0.172116 0.094510 -0.423768 0.035958 -0.209029 -0.422268 0.092895 0.160534
0.058412 0.120992 -0.014379 -0.023724 0.013466 -0.007604 0.030472 -0.020303 -0.116057 0.175699 -0.018250 -0.059248 -0.134894 0.008408 -0.031387 0.084544
-0.173287 0.023250 0.029409 0.061605 -0.087348 0.001369 -0.044329 0.090775 0.036289 -0.085966 0.074324 0.025534 0.175486 0.059482 -0.074134 -0.069844
-0.127977 0.086286 -0.000862 0.053831 -0.006671 0.001532 -0.034825 0.130887 -0.014227 0.051029 0.060214 0.040007 0.093083 0.045030 -0.140661 0.019056
1.389701 -0.244384 -0.463396 -1.207796 0.528155 -0.577964 1.549410 0.485594 -1.235609 1.683238 -0.415950 0.925786 -1.267494 0.788148 -0.634768 1.387646
0.000001 0.000000 0.000000 -0.000000 0.000001 0.000000 0.000001 0.000001 0.000001 0.000001 0.000001 -0.000000 -0.000000 -0.000000 0.000002 -0.000000
0.140450 -0.142925 -0.116320 0.104552 0.118610 -0.093667 -0.090730 -0.086518 0.150537 -0.206375 -0.053238 0.036805 0.193356 -0.089980 0.187330 0.024722
-0.056743 0.046905 0.014868 0.019986 -0.072191 0.004525 0.002210 0.000725 0.034072 0.024621 -0.074869 0.008537 -0.004696 -0.023764 0.033217 0.005117
-0.031587 -0.116355 0.038647 -0.228460 -0.112418 -0.011960 0.176968 0.169373 -0.041126 0.183335 -0.066214 0.100490 -0.027956 0.060213 -0.076118 0.147746
-0.031765 0.033173 -0.005499 0.024661 -0.023708 -0.005860 -0.046212 0.003743 0.003324 -0.024096 -0.018677 -0.009853 0.029436 -0.019030 -0.012352 -0.027599
0.005872 -0.262378 -0.088847 0.361888 0.089676 -0.098107 -0.313258 0.019390 0.565585 -0.114145 -0.057245 0.065243 0.567645 -0.232621 0.171838 0.183919
0.181807 0.169961 -0.043741 0.410695 0.174886 -0.040646 -0.401915 -0.461222 0.466235 -0.176429 -0.248505 -0.237131 0.060127 -0.526569 0.296732 0.056607
-0.114186 0.521051 0.032711 0.261145 -0.100038 0.008792 -0.195929 -0.123163 -0.114952 0.204509 -0.213251 -0.177320 -0.312644 -0.198451 -0.127563 -0.076616
-0.275542 0.117982 0.281283 0.070580 -0.173077 0.301485 -0.185197 -0.235932 0.289919 -0.146472 -0.100050 -0.245798 -0.214547 -0.351430 0.318465 -0.195429
0.024894 -0.056624 -0.013202 0.016039 0.008373 -0.006242 -0.021793 -0.011705 0.079148 -0.040240 -0.025758 0.067972 0.068988 -0.009679 0.063304 0.021700
-0.147393 0.227644 -0.132020 0.209616 -0.063311 -0.128226 -0.192121 0.121706 -0.114670 -0.193064 0.017410 0.153805 0.210388 0.121959 -0.169709 -0.209008
-0.046494 -0.004036 0.030711 -0.009544 -0.066090 0.042839 0.022394 0.016561 0.027838 -0.002091 -0.034520 0.002511 -0.006651 0.012868 0.021246 -0.009485
0.011394 -0.014626 -0.051877 -0.030435 -0.065408 -0.057657 0.039919 0.064198 -0.080499 0.030374 -0.025063 0.069524 -0.028161 0.063815 -0.029055 0.011225
0.004791 -0.002539 0.000776 0.003129 0.011316 0.001127 0.001051 -0.003455 0.025041 -0.009982 -0.000783 0.001664 0.022763 -0.008101 0.012258 0.006214
-0.085878 0.051516 -0.027139 0.007285 -0.097041 -0.036191 0.036568 0.114887 -0.093915 -0.005750 -0.002402 0.117152 0.059138 0.124379 -0.050274 -0.052529
-0.091265 0.250877 0.166118 -0.022952 -0.068429 0.174163 -0.030266 -0.163014 -0.006032 -0.015556 -0.096247 -0.128149 -0.317271 -0.120791 0.060376 -0.084757
0.052774 0.124315 -0.027516 0.020324 0.086132 -0.042773 -0.082039 -0.091409 -0.121543 0.161065 -0.035120 -0.084554 -0.202470 -0.143382 -0.150653 0.090925
0.020565 0.038612 -0.005586 -0.002167 0.015387 0.007108 0.021186 0.013258 -0.050254 -0.014991 0.056370 0.037240 0.024251 0.041831 0.012697 -0.028666
0.208672 -0.089699 0.398596 -0.090422 0.301486 0.405284 0.098238 -0.244093 -0.091550 -0.318125 0.329103 -0.237134 -0.132687 0.061950 0.502254 -0.364234
0.412019 0.040314 -0.108845 -0.119167 0.069963 -0.111345 0.256890 0.043387 -0.445602 0.092756 -0.028376 0.150216 -0.157370 0.170225 0.110229 0.057219
-0.237685 0.334373 0.305778 0.152753 -0.190483 0.439403 -0.174356 -0.347853 0.586757 -0.282625 -0.255510 -0.183969 -0.240478 -0.347253 0.435874 -0.237363
0.449210 0.068275 -0.055912 0.048851 0.138813 -0.007262 0.214143 -0.285345 -0.017534 0.177205 -0.272371 -0.035350 -0.387354 -0.141979 0.309918 0.143574
-0.054058 -0.043896 0.075350 -0.025702 0.016533 0.077183 0.019835 0.019735 -0.011524 0.041196 0.052756 -0.037127 -0.001550 0.020449 -0.025121 0.023978
0.013961 0.076751 0.010489 0.028698 0.006009 0.003931 -0.013454 -0.031673 -0.053171 0.044415 -0.004147 -0.047525 -0.081404 -0.040813 -0.059884 0.010618
0.069075 0.163848 0.068641 0.063689 0.140423 0.037452 0.003183 -0.037320 -0.076558 0.162850 0.116004 -0.106009 -0.073033 -0.009211 -0.058574 0.046231
-0.240690 0.331255 -0.065856 0.217536 -0.143499 -0.067287 -0.128870 0.186103 -0.273758 -0.190501 0.186733 0.127276 0.207836 0.265877 -0.274463 -0.306709
-0.014075 0.003595 0.043795 0.009534 -0.005452 0.011107 0.018094 0.060206 0.037895 0.032071 0.082532 0.014426 0.054448 0.019570 -0.005731 0.031306
-0.102942 0.192782 -0.129935 0.247915 -0.087144 -0.102701 -0.180155 0.075135 -0.017317 -0.132196 -0.063870 0.101961 0.173046 -0.021908 -0.085673 -0.012905
-0.180010 0.211753 0.102650 0.108909 -0.145364 0.077669 -0.070282 -0.002405 0.213047 0.067288 -0.070930 -0.059182 -0.078805 -0.156054 -0.025885 0.075468
0.005599 -0.002406 -0.013516 0.009210 0.012274 -0.007456 -0.001760 -0.010333 0.006281 -0.024838 -0.000691 0.020792 0.044264 -0.016649 0.028670 0.023963
-0.270147 0.233567 -0.099632 0.196658 -0.218896 -0.079908 -0.088361 0.238193 -0.119843 -0.123948 0.033642 0.174748 0.189004 0.224103 -0.185714 -0.162365
0.785285 1.215016 -0.300359 0.783080 0.870804 -0.282076 -0.759668 -0.825313 -0.511718 1.010570 -0.236311 -0.933158 -0.669467 -0.907371 -0.485921 0.732780
0.516169 -0.184026 -0.182310 0.081404 -0.023303 -0.088359 -0.050655 -0.379205 0.504162 -0.148889 -0.519539 0.202344 0.023435 -0.401506 0.619435 0.196010
0.004947 0.006419 0.019077 0.000273 -0.006140 -0.015121 0.020712 0.009466 0.002974 0.003208 0.003317 0.025578 -0.004274 0.012956 -0.004225 0.007951
-0.480541 0.364880 0.087453 0.159883 -0.237268 0.075960 -0.211870 0.371922 -0.006531 -0.136054 0.189842 0.011127 0.320783 0.241199 -0.309764 -0.299685
0.013120 0.002121 0.086103 -0.077992 -0.005995 0.087966 0.067625 0.041435 0.000528 0.075207 0.023117 -0.030871 -0.033852 0.014239 0.027383 0.041164
0.115482 -0.277554 -0.049800 0.056990 0.181342 0.010463 -0.115311 -0.036390 0.429971 -0.157056 0.022327 -0.048868 0.336174 -0.119724 0.090866 0.190322
0.085118 -0.177341 0.063080 -0.259016 0.021470 0.073853 0.254249 0.121998 -0.065710 0.175513 0.089722 0.046795 -0.069510 0.137055 0.070519 0.149576
0.373203 0.131378 -0.098469 -0.092468 0.200827 -0.129074 0.138350 -0.128223 -0.409441 0.358273 -0.000856 -0.151712 -0.385080 -0.020587 -0.170534 0.235436
-0.125992 -0.251218 0.109438 -0.279309 -0.182807 0.149074 0.203442 0.146264 0.092662 0.117807 -0.026820 0.058152 -0.047849 0.041507 -0.059255 0.124088
0.000000 0.000001 0.000001 0.000000 0.000001 0.000000 0.000000 0.000000 -0.000001 0.000001 -0.000000 0.000001 0.000000 0.000000 -0.000001 -0.000000
-0.298239 0.281692 0.416276 -0.365919 0.135098 0.370366 0.247146 0.307630 -0.021958 0.789101 0.496084 -0.459224 -0.239856 0.156963 -0.656978 0.328329
-0.120029 -0.167264 0.012534 -0.094040 -0.014627 0.050929 0.048037 0.092766 0.223255 0.071687 0.045004 0.000678 0.138175 -0.035196 0.004673 0.103864
0.129762 -0.668947 0.059483 0.282458 0.279893 0.050126 -0.170064 -0.128030 0.802656 -0.511822 0.001113 0.015943 0.695168 -0.214118 0.546721 0.094488
-0.091059 0.208984 -0.016351 0.190822 -0.138078 0.128991 -0.363131 -0.284728 0.363353 -0.240605 -0.246146 -0.075563 0.000227 -0.402141 0.324101 -0.118789
0.235777 0.017995 0.076321 0.132379 0.338811 0.032600 -0.029308 -0.155571 -0.099894 -0.285657 0.264947 -0.024332 0.096533 0.152627 0.127975 -0.227194
-0.061323 0.026245 0.017163 0.005001 -0.025730 0.050545 0.003442 0.042423 -0.057026 -0.143531 0.049644 0.032014 0.017017 0.112501 0.042180 -0.197308
-0.124717 -0.046541 -0.007961 -0.148755 -0.068842 -0.032581 0.042795 0.211954 0.084055 0.161262 -0.014741 0.057167 0.099536 0.016655 -0.030710 0.137890
0.036032 0.008809 -0.009387 0.002377 0.018756 -0.023436 -0.000444 -0.023100 0.033277 0.006009 -0.019866 0.007394 -0.019913 -0.010386 0.053003 0.026941
-0.035663 0.058728 -0.014482 0.027914 -0.006931 -0.027488 -0.042009 0.078063 -0.051998 -0.059874 0.032391 0.023334 0.037493 0.066050 -0.004608 -0.072013
-0.163129 0.097840 -0.088497 0.196783 -0.201804 -0.071775 -0.095236 0.173521 -0.065233 -0.129648 -0.040647 0.183140 0.187634 0.103581 -0.072662 -0.166709
0.039496 -0.016608 -0.060826 0.065964 0.055535 -0.060614 -0.084527 -0.016784 0.087996 -0.063025 -0.045572 0.016823 0.069046 -0.061322 0.083131 0.016570
0.012257 -0.031080 -0.017969 -0.022501 -0.036231 0.004992 0.044851 0.043424 -0.018053 0.035201 -0.025907 0.069316 -0.015353 0.045618 -0.014583 0.025866
0.008150 -0.075411 -0.039166 -0.092477 -0.096991 -0.030749 0.132906 0.098880 -0.018386 0.110226 -0.029116 0.156365 -0.033694 0.095712 -0.025268 0.064025
-0.153033 0.097083 -0.034632 0.076365 -0.105605 -0.046536 -0.029709 0.143489 -0.108049 -0.064578 0.025733 0.069055 0.082976 0.110331 -0.120975 -0.105217
0.027753 -0.176106 -0.134615 -0.216550 -0.237175 -0.125432 0.324933 0.227738 -0.101007 0.232009 -0.114335 0.367123 -0.068406 0.213143 -0.037987 0.157126
-0.293992 0.350285 -0.156134 0.438594 -0.236642 -0.176074 -0.135240 0.350673 -0.245996 -0.191685 0.046390 0.297174 0.318759 0.308203 -0.259752 -0.287811
0.324937 0.543084 -0.107897 0.215411 0.290676 -0.103380 -0.218450 -0.340152 -0.268478 0.509385 -0.125344 -0.431722 -0.407740 -0.412152 -0.408087 0.309910
-0.274133 0.388389 0.269799 0.070982 -0.221777 0.315156 -0.112139 -0.079052 0.182020 0.006622 -0.140241 -0.176543 -0.232290 -0.208392 0.158316 -0.108603
0.023654 -0.027655 -0.037568 -0.008093 -0.029993 -0.017763 0.008865 0.008489 0.004070 0.033546 -0.065401 0.027081 -0.002541 -0.037855 0.022560 0.036857
0.144904 -0.104291 -0.002791 -0.077480 -0.068955 0.007995 0.110155 -0.082403 -0.139750 -0.059004 -0.081286 0.123082 -0.141765 0.080310 0.121500 -0.061889
0.239970 -0.338455 -0.144227 0.332385 0.064013 -0.116700 0.024601 0.066704 0.104858 -0.324546 -0.102286 0.298352 0.378372 0.135320 0.298923 -0.006915
-0.103405 0.183343 0.183082 0.076522 -0.057759 0.230064 -0.114381 -0.185431 0.196100 -0.133039 -0.034123 -0.105323 -0.144890 -0.180770 0.169840 -0.211640
-0.084601 0.104988 0.076381 0.153475 -0.009803 0.071109 -0.088904 -0.021963 0.091237 -0.218475 0.096590 0.053443 0.150258 0.087801 0.030979 -0.226439
-0.056627 0.084693 0.061148 0.033442 -0.083958 0.050676 -0.070465 -0.050030 0.097838 -0.042790 -0.070596 -0.043080 -0.077019 -0.088629 0.042187 -0.022809
0.031333 -0.313452 -0.145382 -0.238144 -0.333996 -0.131200 0.409956 0.325593 -0.128399 0.217972 -0.202365 0.508523 -0.064724 0.320224 -0.003134 0.186648
-0.339660 0.247533 -0.096038 0.081065 -0.270281 -0.085267 -0.034227 0.274179 -0.224426 0.032214 0.006585 0.185852 0.028409 0.248978 -0.298298 -0.140701
-0.046825 0.106383 0.046668 0.094900 0.112589 0.020025 -0.059462 -0.028205 0.062978 0.091699 0.007507 -0.118838 0.011018 -0.035819 -0.060066 0.051584
0.037890 0.435070 -0.247300 0.272122 0.018523 -0.295498 0.101954 0.146384 -0.538498 0.650882 -0.040857 0.164756 -0.290788 0.119272 -0.584844 0.367988
0.261315 -0.098527 0.147716 0.086916 0.490384 0.128967 0.011541 -0.213431 0.125966 0.203996 0.185862 -0.385011 0.001044 -0.234700 0.040133 0.276400
-0.034966 -0.069628 0.025930 0.016075 0.054223 0.066229 0.003246 0.037953 0.052427 0.010950 0.048535 -0.059176 0.089422 -0.015923 0.010800 0.036367
-0.259620 0.313398 0.023346 0.117395 -0.296377 0.074593 -0.064840 0.118113 -0.048353 -0.025557 -0.081587 0.091358 -0.042069 0.095177 -0.096840 -0.167732
-0.189045 0.253353 0.275566 0.072655 0.071129 0.303850 -0.113272 -0.070585 0.288719 0.091203 0.105567 -0.383768 -0.024041 -0.196517 -0.078377 0.015793
-0.612094 0.919092 0.782595 0.731805 -0.515153 0.837122 -0.605867 -0.543923 0.739079 -0.738231 -0.175988 -0.422705 -0.438276 -0.448127 0.844959 -0.879265
-0.000851 -0.069508 -0.027170 -0.162411 -0.148984 -0.042718 0.180638 0.146955 -0.107170 0.101319 -0.108529 0.172337 -0.065453 0.101088 0.000829 0.125093
0.107039 0.224846 -0.065277 0.115394 0.160016 -0.062321 -0.094708 -0.095187 -0.130268 0.206070 -0.028502 -0.200772 -0.119752 -0.161556 -0.187924 0.091549
0.092352 0.030246 -0.110875 0.207060 0.120162 -0.086180 -0.125600 -0.109757 0.139802 -0.155711 -0.067394 -0.036250 0.117695 -0.123898 0.135536 -0.002106
0.148908 -0.154834 0.013933 -0.170691 0.103332 0.000717 0.208122 0.005514 -0.232171 0.126032 0.106938 0.045307 -0.165085 0.135581 0.112789 -0.020450
0.098746 -0.054074 -0.198704 0.376955 -0.007017 -0.133753 -0.243886 -0.077682 0.094456 -0.526169 -0.029179 0.218785 0.382803 0.031387 0.288909 -0.209977
-0.464835 -0.500175 1.031455 -0.774551 0.965031 0.938275 0.515812 0.558351 0.707371 0.906902 1.385062 -0.954389 0.555277 0.330007 -0.574637 0.697247
-0.105675 0.005595 0.069708 -0.024742 0.035409 0.021041 -0.022148 0.036181 0.137361 0.117566 0.064547 -0.065711 0.041598 -0.018424 -0.106258 0.062302
0.030530 -0.029947 0.000322 -0.059487 -0.040805 0.000643 0.052560 0.091197 -0.002737 0.083560 0.055477 0.074963 0.029047 0.049001 -0.002801 0.053939
0.136948 0.307861 -0.056278 0.191505 0.188657 -0.055562 -0.144102 -0.164574 -0.098960 0.208543 -0.036246 -0.252774 -0.128958 -0.210910 -0.180340 0.123374
0.055960 -0.260685 -0.073285 -0.247766 -0.172653 -0.076877 0.280082 0.174224 0.014464 0.148584 -0.104945 0.281150 0.052990 0.192186 0.039408 0.132047
0.249983 0.162598 -0.125928 0.079669 0.112164 -0.136246 -0.053994 -0.122250 -0.100030 0.241217 -0.140889 -0.070302 -0.114389 -0.207654 -0.174276 0.250061
-0.042992 -0.051427 0.003547 -0.052852 -0.047749 0.000456 0.049481 0.072708 0.015176 0.053069 0.006855 0.042069 0.023374 0.035554 -0.038212 0.059313
-0.111294 0.079384 -0.059466 0.111546 -0.092162 -0.127439 -0.107841 0.109011 -0.105571 -0.024498 0.037714 0.091335 0.130968 0.066153 -0.107299 -0.026946
-0.050843 -0.032240 -0.053802 -0.124260 -0.166305 0.040343 0.115718 0.113572 -0.011885 0.072293 -0.084703 0.066710 -0.076194 0.056495 0.053149 0.022892
-0.710953 0.596239 -0.072285 0.483288 -0.529351 -0.057130 -0.469371 0.429851 -0.076162 -0.837549 0.004805 0.274853 0.526496 0.388551 -0.114091 -0.941795
0.079215 -0.100661 -0.048550 -0.035577 -0.043992 -0.039009 0.060527 0.045625 0.009055 0.002772 -0.056210 0.131083 0.006281 0.035908 0.029448 0.082228
-0.000428 -0.000131 -0.016296 -0.000605 -0.025852 0.006016 0.017405 0.020492 0.014034 0.014381 -0.022507 0.029137 -0.025106 0.007744 0.016418 0.028544
0.075713 -0.042999 0.066608 -0.043485 0.053059 0.049860 0.059187 -0.038744 -0.109479 -0.022320 0.118400 -0.035848 -0.060799 0.065719 0.064613 -0.074093
-0.108541 0.030018 0.057816 0.042560 -0.023973 0.046682 0.002777 0.124991 0.005049 0.014000 0.091152 -0.009916 0.097167 0.056932 -0.060055 0.027477
0.000000 -0.000001 0.005595 0.000001 0.001534 -0.003779 0.006042 0.009176 0.007515 0.004257 0.016182 0.000000 0.002864 0.003192 -0.000001 0.007814
-0.134987 0.009883 0.023005 -0.040813 -0.164423 0.020057 0.071942 0.211547 -0.023441 0.066895 0.037895 0.109124 0.101597 0.150672 -0.141438 0.000161
-0.008119 -0.051644 0.100599 -0.050643 0.042356 0.067259 0.064461 0.001746 -0.027647 0.023973 0.100994 -0.029717 0.022979 0.042430 0.014356 -0.039380
-0.179416 0.181275 -0.036338 0.120210 -0.177603 -0.037245 -0.032503 0.217779 -0.147831 -0.036187 0.037042 0.135595 0.140101 0.174590 -0.211778 -0.157650
-0.051013 0.056516 -0.012110 0.052136 -0.062465 0.004533 -0.028663 0.068577 -0.050445 -0.027019 -0.000563 0.037836 0.034112 0.063753 -0.031702 -0.055056
-0.299429 -0.089377 0.596198 -0.478913 0.220687 0.480802 0.190262 0.469030 0.694098 0.841883 0.623384 -0.552223 0.316833 -0.059239 -0.412840 0.601599
0.035838 -0.023592 0.091117 -0.017526 0.021757 0.052628 0.049165 -0.047698 0.041774 -0.044781 0.068036 -0.040782 -0.012026 0.032000 0.094509 -0.022913
0.042279 -0.208650 -0.026366 -0.211560 -0.092925 -0.028928 0.252338 0.131447 -0.087139 0.072993 -0.055029 0.218485 -0.099071 0.082194 0.035162 0.124190
-0.079395 -0.090040 -0.057908 -0.038467 -0.241178 -0.077211 0.121914 0.181271 0.051324 0.082219 -0.212084 0.231318 0.043005 0.070740 0.069354 0.067165
-0.005744 -0.127410 -0.275183 0.254073 0.095424 -0.272996 -0.251749 0.062610 0.103171 -0.245015 -0.038091 0.122100 0.411127 -0.042088 0.055943 0.030255
-0.047892 0.063124 -0.004704 -0.002701 -0.104279 0.011504 0.031293 0.068298 0.056948 0.011338 -0.065926 0.079706 0.042974 0.012603 0.061434 -0.004521
0.112679 -0.157255 -0.029275 -0.216865 -0.061840 -0.021341 0.272004 0.104107 -0.202530 0.192651 -0.046231 0.134058 -0.168571 0.113575 -0.092976 0.204013
0.199873 -0.106009 -0.061218 -0.145406 0.078470 -0.005321 0.093984 -0.064100 0.029938 0.536887 -0.197021 0.001889 -0.105637 -0.290659 -0.094688 0.601130
-0.053541 0.041527 -0.048829 0.073444 0.110268 -0.075682 -0.053741 0.268058 0.147063 0.190566 0.256287 -0.075310 0.408157 0.066195 -0.309680 0.252989
0.084266 0.113592 -0.060547 0.075363 0.112934 -0.046508 -0.067122 -0.091958 -0.109356 0.121840 -0.020155 -0.106623 -0.122229 -0.099489 -0.097070 0.105145
0.131603 0.069259 -0.314538 -0.311362 -0.136926 -0.302909 0.295123 0.432027 -0.455216 0.941454 -0.261749 0.247769 -0.411501 -0.043601 -0.688638 0.697932
0.152512 0.041221 -0.095564 0.128889 0.166619 -0.057229 -0.086925 -0.145279 -0.067868 0.056461 -0.019512 -0.138081 -0.047818 -0.157982 -0.044915 0.101365
-0.032939 -0.433573 0.175291 -0.549132 -0.171284 0.195034 0.444771 0.373968 0.013839 0.091687 0.119791 0.274637 0.041242 0.389433 0.050480 0.089642
0.229373 0.356447 -0.108903 0.136971 0.220447 -0.153133 -0.059299 -0.032617 -0.279458 0.380067 0.070679 -0.027120 -0.239450 -0.095248 -0.384138 0.274100
0.359665 -0.897349 0.199639 -0.374587 0.303114 0.157723 0.676396 0.202205 0.434415 -0.108800 0.461242 0.355449 0.628234 0.569748 0.538831 0.223227
0.192544 0.081152 -0.181263 0.108938 0.109687 -0.164090 -0.077694 -0.062628 -0.072907 0.069035 -0.060376 0.006370 -0.038413 -0.111422 -0.117558 0.168989
0.086843 -0.073901 0.142499 -0.086719 0.099194 0.096606 0.144280 0.034109 -0.159892 -0.037353 0.181697 -0.020638 -0.043666 0.134637 0.099157 -0.126444
0.732648 0.069462 -0.557909 -0.185115 0.191481 -0.628472 0.247513 -0.089369 -0.719441 1.009634 -0.477327 0.207575 -0.553511 -0.140628 -0.712839 0.986135
0.222721 -0.187963 -0.037769 -0.233370 -0.025358 -0.080046 0.370229 0.071029 -0.200607 0.143022 -0.029194 0.244322 -0.208739 0.258359 0.055940 0.124000
-0.025813 0.033950 -0.020843 0.030133 -0.010124 -0.029071 -0.010297 0.048653 0.000642 0.014752 0.010407 0.014240 0.044517 0.011153 -0.036481 -0.010092
-0.012215 0.043680 0.012137 0.003719 -0.001707 0.005414 -0.007322 -0.021533 -0.033492 0.064099 -0.025949 -0.026218 -0.029813 -0.035313 -0.045015 0.050606
0.000639 0.056381 0.017592 0.017886 0.004609 -0.002064 -0.011424 0.032707 -0.141885 -0.088655 0.083763 0.027915 0.018610 0.109247 -0.019464 -0.113043
-0.745082 -0.255665 0.907903 -0.434912 0.221085 0.803039 0.302206 0.770832 0.971145 0.618230 1.137959 -0.632670 0.744450 0.299030 -0.579224 0.371277
-0.073073 0.095553 0.016134 0.051485 -0.047782 0.039249 -0.033905 0.038017 -0.032954 0.027320 0.003286 -0.046120 -0.041843 -0.009345 -0.086204 -0.034441
-0.063280 -0.051773 0.052500 -0.008313 0.016962 0.043409 0.041913 0.066196 0.072391 -0.030497 0.112823 0.037101 0.121815 0.063462 -0.032075 -0.018704
0.031182 -0.161660 -0.104883 -0.101242 -0.074255 -0.134007 0.194844 0.151101 -0.004315 0.158651 -0.094152 0.182908 0.039174 0.131546 0.004044 0.134024
0.027827 -0.023645 0.040205 -0.020814 0.033553 0.025495 0.036047 -0.013488 -0.040564 -0.017317 0.029816 -0.021063 -0.027268 0.041434 0.036100 -0.034334
-0.000000 -0.000000 -0.000001 -0.000001 -0.000000 -0.000000 0.000000 0.000000 0.000001 0.000000 -0.000001 0.000000 0.000001 0.000000 -0.000000 0.000000
-0.046709 -0.171140 -0.063560 0.042475 -0.019154 -0.005033 -0.011487 0.082074 0.390301 0.119807 -0.083732 -0.007796 0.177565 -0.100986 0.108097 0.234013
-0.166841 0.010990 -0.009940 0.056714 -0.053288 -0.049482 -0.052331 0.159020 0.037062 -0.027280 0.039791 0.033727 0.164921 0.077271 -0.112068 -0.045548
-0.123412 0.041685 0.037250 0.029004 -0.078083 0.018478 -0.006132 0.095416 0.015484 -0.018828 0.056246 0.050207 0.091126 0.090204 -0.066726 -0.057489
0.092757 0.018407 0.407213 -0.174309 0.300901 0.430073 0.207452 -0.010892 -0.156729 0.032525 0.435949 -0.379070 -0.103907 0.209007 0.029707 -0.171483
0.059006 -0.138719 -0.110216 -0.045502 -0.024258 -0.129301 0.075342 0.009262 0.035933 0.067690 -0.169218 0.114468 0.006179 -0.022476 0.057198 0.129473
-0.218781 0.589316 0.127745 0.307097 -0.182179 0.203305 -0.399563 -0.367020 0.193203 0.041234 -0.258826 -0.401140 -0.388609 -0.539889 -0.012179 -0.159213
0.061906 -0.065481 0.060333 -0.055925 0.078082 0.067201 0.025761 -0.017121 0.026045 -0.000771 0.101243 -0.031093 0.014314 -0.001924 0.064799 0.023113
0.249766 0.247928 -0.089152 0.167399 0.221919 -0.094297 -0.098273 -0.219763 -0.125325 0.131258 -0.097721 -0.218636 -0.260298 -0.211900 -0.074514 0.187160
-0.015495 0.166225 0.074996 0.022733 0.025776 0.060256 -0.004271 -0.087761 0.019651 0.083297 -0.024252 -0.137887 -0.146528 -0.080435 0.029913 0.036013
0.246433 0.092792 -0.329423 0.093489 0.108529 -0.284173 -0.039887 -0.110171 -0.222908 0.189636 -0.274462 0.134167 -0.126103 -0.131133 0.024122 0.244142
-0.160547 0.094026 -0.115971 0.059877 -0.190899 -0.168271 -0.059687 0.187935 -0.161325 -0.104197 -0.000220 0.137900 0.147799 0.199903 -0.197515 -0.172199
0.035266 0.104411 0.039403 0.018166 0.052289 0.007772 0.130536 0.050323 -0.148646 0.035492 0.090104 0.028166 -0.060769 0.216915 -0.125847 -0.133766
-0.104450 -0.040092 0.073227 -0.026019 -0.016705 0.092262 0.021260 0.042130 0.125330 0.047790 0.087234 -0.041539 0.059651 -0.012819 -0.012663 0.031009
-0.107784 -0.029112 0.079811 -0.007301 -0.009089 0.099944 -0.001421 0.031555 0.138716 0.041072 0.099931 -0.053069 0.063675 -0.021533 -0.010786 0.023422
0.081165 -0.220937 -0.124886 -0.345251 -0.260088 -0.174685 0.345020 0.214390 -0.229357 0.235450 -0.219126 0.288832 -0.128039 0.186858 -0.041970 0.152854
0.091784 -0.105267 -0.107403 0.073696 0.078701 -0.077914 -0.067789 -0.067918 0.116346 -0.120741 -0.045821 0.018583 0.148002 -0.088772 0.109915 0.033465
0.109600 0.172353 -0.128219 -0.041331 -0.002878 -0.098742 0.035540 -0.025143 -0.291434 0.327118 -0.119114 -0.083364 -0.287923 -0.061392 -0.284143 0.187381
-0.119604 -0.038029 0.095471 -0.069920 0.003804 0.063230 0.023646 0.089971 0.086493 0.084229 0.127099 -0.022818 0.076999 0.030539 -0.096845 0.035617
-0.046150 -0.000105 0.042019 -0.019191 0.004027 0.033690 0.012341 0.037587 0.040687 0.028165 0.043854 -0.004590 0.042492 0.005329 -0.024971 0.026049
0.024862 -0.018999 -0.014317 0.015662 0.037749 -0.023355 -0.024569 0.002674 0.017863 -0.004643 -0.001343 0.013384 0.022692 -0.009494 0.058631 0.007172
0.001643 0.009940 0.068250 -0.111094 -0.057524 0.054352 0.103733 0.026114 -0.122300 0.010864 0.051398 0.037327 -0.162670 0.062447 0.046653 -0.056973
-0.091335 -0.091376 0.136987 -0.119229 0.030219 0.089803 0.081379 0.166782 0.162971 0.131863 0.182523 -0.071563 0.138123 0.076250 -0.113614 0.086459
0.248562 -0.071255 1.021044 -0.598263 0.249640 1.017598 0.591153 -0.557252 -0.390521 -0.576784 0.779934 -0.499518 -0.838651 0.456320 1.008006 -0.917860
0.020111 0.018366 -0.045517 -0.039065 -0.005496 -0.030400 0.046860 0.005634 -0.021310 0.116349 -0.030844 0.006975 -0.001214 -0.021009 -0.040284 0.099176
-0.115038 0.126490 0.093591 0.022965 -0.098287 0.076579 -0.062917 -0.058614 0.112183 -0.005516 -0.034946 -0.069749 -0.078571 -0.100562 0.053813 -0.076680
0.004622 0.001330 0.000001 0.002827 0.008453 -0.000001 -0.008042 -0.018703 -0.000000 0.006044 0.003704 -0.015147 0.004956 -0.010963 -0.004364 -0.000669
0.194952 0.368056 -0.015400 0.174267 0.215903 -0.008581 -0.164269 -0.236068 -0.221149 0.303457 -0.018806 -0.354546 -0.288977 -0.232354 -0.189314 0.165269
0.286044 -0.271033 -0.091658 -0.146045 0.081883 -0.077608 0.273193 0.055417 -0.221204 -0.109491 0.014233 0.336323 0.078098 0.215317 0.101649 0.003473
-0.293377 0.230628 0.067396 0.136193 -0.198539 0.040767 -0.130038 0.114801 -0.020356 -0.262940 0.020427 0.081026 0.111276 0.072113 -0.036848 -0.290985
-0.042344 -0.040038 0.024807 -0.028489 -0.030974 0.037586 0.019038 0.009214 0.060943 0.019234 0.028545 0.040322 0.026874 0.022828 0.028420 0.017748
0.177287 -0.044416 -0.383804 -0.191815 -0.271401 -0.351540 0.323457 0.339252 -0.324114 0.519170 -0.317968 0.490752 -0.180086 0.204863 -0.254660 0.388092
0.005016 0.177319 -0.013853 0.081338 -0.029283 -0.015134 -0.050890 -0.052588 -0.040772 0.065176 -0.027580 -0.091374 -0.127095 -0.074191 -0.092465 -0.005492
-0.020775 0.000383 -0.010942 0.056191 -0.029729 -0.000330 -0.014880 0.027373 -0.010586 -0.051593 0.011206 0.022758 0.063647 0.028694 0.035289 -0.079432
-0.094639 0.092674 -0.164550 0.292872 -0.076960 -0.139297 -0.324308 0.025325 0.434576 0.113287 -0.227242 0.029163 0.298425 -0.359289 -0.039750 0.202575
-0.025742 0.020274 0.001573 0.017419 -0.007358 0.001797 -0.019736 0.003554 0.004769 -0.006704 -0.012166 0.017459 0.000369 0.009105 -0.002081 -0.005137
-0.010370 0.083623 0.025414 0.048243 0.056433 0.014557 -0.012825 0.002738 0.050044 0.083139 0.075133 -0.090066 -0.005753 -0.033998 -0.106212 0.050239
-0.141654 0.119739 0.064284 0.032635 -0.084986 0.056561 -0.057755 -0.005019 0.022763 -0.072876 -0.024469 -0.014698 0.037987 0.001793 0.036920 -0.134824
0.017181 0.150773 -0.030731 0.126856 0.024263 -0.029850 -0.071749 0.008397 -0.055310 0.024061 0.011418 -0.043874 0.016639 0.011980 -0.053331 -0.027527
0.016653 -0.004321 -0.008222 0.009619 0.015880 -0.016278 0.005542 -0.003543 0.001235 0.045282 -0.011190 0.007530 0.001987 -0.008080 0.000700 0.032190
-0.000002 -0.000001 0.005045 -0.000000 0.001281 -0.002122 0.004063 0.009500 0.006332 0.003362 0.012077 -0.000000 0.001699 0.002626 0.000003 0.001842
-0.094333 -0.012606 0.014925 0.101647 0.007610 0.009439 -0.123360 0.041514 0.197537 -0.088053 0.020404 0.006875 0.138633 -0.042514 0.101411 0.021781
0.113854 0.046488 1.061540 -0.264248 0.313805 1.107334 0.356439 -0.375142 0.231462 -0.471803 0.807817 -0.431139 -0.431408 0.274980 0.783899 -0.630527
-0.354554 0.336024 -0.156629 0.283626 -0.173741 -0.156907 -0.273360 0.245654 -0.151955 -0.342002 -0.004347 0.238847 0.207417 0.226403 -0.266755 -0.357694
-0.210557 0.141142 0.085422 0.058548 -0.166747 0.138211 -0.177624 -0.082520 0.155089 -0.071882 -0.069977 -0.060052 -0.032660 -0.152559 0.080025 -0.098205
-0.129992 -0.044809 0.112665 -0.057884 -0.022056 0.121361 0.052953 0.062720 0.139614 0.028263 0.084049 -0.112793 0.039898 0.023906 -0.118936 0.042649
-0.240420 0.139939 0.210258 0.050633 -0.074099 0.161656 -0.002548 0.178140 -0.076530 -0.086483 0.225845 -0.052516 0.077808 0.133172 -0.048412 -0.205847
0.166364 -0.042945 0.232467 -0.278626 -0.030355 0.230518 0.200922 -0.148262 -0.092588 0.048432 0.029045 -0.029120 -0.406263 -0.038058 0.228321 -0.032397
-0.016295 0.004589 -0.000942 0.007872 -0.021405 0.008913 -0.057272 -0.023925 0.059259 -0.009660 -0.059186 0.004645 0.005879 -0.042746 0.039786 -0.011154
-0.035429 0.048229 -0.134055 0.228658 -0.101735 -0.138485 -0.032023 0.251216 -0.021352 -0.046431 0.007580 0.279527 0.334438 0.197749 -0.086576 -0.042982
0.026349 -0.047847 -0.023383 0.078137 0.027110 0.051701 -0.092764 -0.089319 0.133937 -0.106426 -0.065168 -0.012589 0.019595 -0.104053 0.175253 -0.076669
0.124776 -0.141917 0.368386 -0.270152 0.036763 0.414667 0.281256 -0.319077 -0.103824 -0.352721 0.208408 -0.067911 -0.273150 0.159649 0.524479 -0.420195
0.037827 0.094786 -0.006417 0.097218 0.041524 0.037688 -0.105038 -0.150533 0.028978 0.043295 -0.054157 -0.116452 -0.130050 -0.172280 0.030626 0.054829
0.031035 0.017590 0.021816 -0.020974 0.047927 0.051223 0.043085 -0.007921 -0.041654 0.027347 0.060489 -0.016343 -0.052686 0.042740 0.008952 -0.024737
0.020764 0.002616 0.022533 -0.033131 0.035794 0.052619 0.049932 0.001523 -0.029043 0.013639 0.060903 -0.002077 -0.046732 0.040678 0.021068 -0.036646
-0.055681 0.069106 -0.006744 0.063340 -0.009125 -0.025335 -0.063258 0.016589 0.024533 -0.098282 -0.007696 0.011010 0.063777 0.020134 -0.023306 -0.071152
0.002010 -0.020680 -0.007402 -0.010059 -0.013591 -0.006345 0.036625 0.032137 -0.002629 0.023023 -0.019554 0.041957 -0.000146 0.028684 -0.001557 0.013248
-0.121922 0.126671 -0.012123 0.107475 -0.091762 0.019982 -0.089143 0.070894 -0.025254 -0.096930 0.003830 0.055461 0.050092 0.056108 -0.045777 -0.104939
0.044261 -0.207732 0.086377 0.035432 0.286523 0.017453 0.086989 0.112953 0.042640 0.074921 0.334957 -0.091182 0.292437 0.139725 -0.127306 0.189736
0.014416 0.054910 0.017593 0.017046 0.012079 0.029854 -0.002239 -0.024131 0.028590 -0.008845 -0.037370 -0.014179 -0.025711 -0.000677 0.015763 0.014913
0.091994 0.230010 -0.344251 0.870034 0.134163 -0.359403 -0.824533 -0.525223 0.474173 -0.210867 -0.421564 -0.225272 0.260026 -0.854926 0.095954 0.129228
-0.037248 0.047972 0.025447 -0.012630 -0.061862 0.012285 0.013082 0.028335 -0.005921 0.022117 -0.002026 -0.007002 -0.059119 0.005177 -0.029536 -0.005637
-0.007695 -0.062320 -0.081396 -0.138370 -0.109600 -0.059055 0.175232 0.160528 -0.154820 0.077259 -0.032581 0.160091 -0.008054 0.192173 -0.046565 0.058694
0.156212 -0.222711 0.140664 -0.387433 0.060047 0.154479 0.404351 0.062294 -0.173694 0.089546 0.241776 0.112822 -0.260206 0.321910 0.097417 -0.054009
0.011049 0.007219 0.024255 -0.018272 0.028306 0.024713 0.043072 0.023924 0.015664 0.006047 0.035780 0.010092 -0.007502 0.042273 0.013984 0.018734
-0.011735 0.090962 0.093304 0.005824 0.030590 0.074784 0.015134 -0.049942 0.002732 0.014538 0.027567 -0.075297 -0.062072 0.001358 0.028235 -0.015772
0.350320 0.038877 -0.115268 0.617591 0.251233 -0.091007 -0.437100 -0.447343 0.407323 -0.444872 -0.133694 -0.183852 0.257702 -0.354225 0.396103 -0.045419
0.296070 0.102356 0.150531 -0.062683 0.261483 0.076140 0.166398 -0.211030 -0.376712 -0.021471 0.239557 -0.134388 -0.365527 0.105433 0.009673 -0.179321
-0.114732 -0.098766 0.024755 -0.151490 -0.077921 0.017269 0.191490 0.184972 -0.017221 0.113317 0.051127 0.091209 0.015999 0.197394 -0.105756 0.040352
0.145359 -0.119242 -0.200562 0.173202 0.097799 -0.191418 -0.185428 -0.022282 0.238212 -0.019308 -0.201614 0.078330 0.259006 -0.183339 0.115494 0.131054
0.023095 -0.047073 -0.033925 0.079468 0.041240 -0.007903 -0.097480 -0.105436 0.163754 -0.161181 -0.025078 -0.012261 0.041143 -0.086638 0.088096 0.015203
0.030944 -0.031715 -0.033017 -0.064335 -0.037452 -0.019068 0.040737 0.049232 -0.059648 0.065698 -0.024296 0.073339 -0.027251 0.035443 0.011239 0.022321
0.129597 -0.272861 -0.183365 -0.354335 -0.279275 -0.260204 0.342721 0.269290 -0.219543 0.222405 -0.265166 0.364020 -0.074871 0.207901 -0.001960 0.212348
-0.046135 -0.180479 -0.036072 -0.241412 -0.204453 -0.029091 0.214932 0.181522 -0.094261 0.103026 -0.034004 0.223370 -0.000625 0.170926 -0.011408 0.067930
0.033713 -0.052472 -0.075819 0.031067 0.079448 -0.059406 -0.058187 0.042962 0.109612 -0.017409 0.008478 0.019832 0.138511 -0.046424 0.070063 0.071280
0.023831 -0.058208 -0.060803 0.021569 0.056242 -0.033713 -0.038825 0.049267 0.083242 -0.025160 0.021104 0.021791 0.130090 -0.025345 0.042338 0.056912
0.012192 -0.031491 0.003227 0.054557 0.035918 0.018777 -0.063164 -0.080813 0.160222 -0.106267 -0.030426 -0.027836 0.025985 -0.080491 0.106004 0.009809
-0.030235 0.029988 -0.027861 0.008160 -0.066846 -0.010080 -0.033672 -0.009385 0.072335 0.034310 -0.073674 0.030905 0.018425 -0.073116 0.019435 0.021087
0.011587 -0.013273 -0.008762 -0.032002 -0.011169 -0.003188 0.016408 0.029353 -0.020481 0.047948 0.002723 0.045508 0.000811 0.007646 0.004205 0.027380
-0.258452 0.228599 0.233697 0.055409 -0.133128 0.242640 -0.090661 0.023743 0.241613 -0.004796 -0.078837 -0.150255 -0.040429 -0.107516 0.027019 -0.038802
-0.196976 -0.297317 0.124790 -0.329870 -0.011582 0.070979 0.208252 0.420144 0.214268 0.497488 0.285321 -0.107931 0.238500 0.129910 -0.311133 0.489988
-0.060915 0.136067 -0.019881 0.089220 -0.109958 0.007423 -0.078098 -0.032503 0.092572 -0.006229 -0.131819 -0.043674 -0.003818 -0.125261 0.013932 0.003506
-0.059373 -0.056184 0.039806 -0.106116 -0.065376 -0.008130 0.072151 0.073453 0.029050 0.085180 -0.009052 0.020796 0.054521 0.072889 -0.058367 0.074446
0.214359 -0.168381 -0.304196 0.245474 0.096990 -0.294917 -0.170940 -0.117822 0.109792 -0.305724 -0.184334 0.127211 0.243641 -0.059885 0.257436 0.001374
0.061865 0.017761 0.006074 -0.004474 0.061503 0.014927 0.004029 -0.031021 -0.049777 -0.010429 0.041125 -0.052004 -0.033716 0.003466 0.019373 -0.011525
0.027572 0.056489 0.033883 -0.028146 -0.030501 -0.004682 0.077993 0.038365 -0.092876 0.090371 0.033234 -0.014037 -0.113788 0.064548 -0.002229 0.058410
-0.011168 -0.015846 -0.042738 -0.079724 -0.131405 0.009015 0.076970 0.109546 0.004987 0.080666 -0.112229 0.114863 -0.173637 0.015872 0.034066 0.086496
0.210293 0.427955 -0.366224 0.304709 0.238298 -0.309640 -0.332252 -0.371164 -0.307824 0.144581 -0.314040 0.003204 -0.240276 -0.355526 -0.026272 0.164660
-0.001331 -0.051668 0.025833 0.174428 0.116508 0.014688 -0.215338 -0.142930 0.251241 -0.060062 -0.087074 -0.083937 0.189598 -0.289575 0.083311 0.050689
-0.568250 0.211599 0.457678 0.176355 -0.297843 0.517319 -0.178056 -0.006031 0.858303 -0.258633 -0.014021 -0.191803 0.161652 -0.188419 0.345372 -0.122946
-0.027721 -0.007671 0.089568 -0.033404 -0.005857 0.053716 0.068322 0.037607 0.020173 -0.014200 0.050726 -0.000392 -0.004971 0.048000 -0.003847 0.007302
-0.061877 0.142253 0.080589 0.051526 -0.040357 0.111542 -0.080266 -0.050669 0.091483 0.014504 -0.047863 -0.108954 -0.064863 -0.064687 0.027822 -0.051513
0.455215 -0.340274 -0.340044 0.151796 0.284094 -0.325596 -0.177196 -0.125542 0.248937 -0.152232 -0.198018 0.139697 0.359737 -0.227905 0.293633 0.239511
0.245536 0.073032 -0.437906 0.119183 -0.048668 -0.484134 -0.048434 0.130034 -0.197532 0.424832 -0.340664 0.101315 0.120543 -0.035996 -0.276071 0.437593
0.045415 -0.051486 -0.032703 -0.078838 -0.073660 -0.063049 0.122727 0.040972 -0.014819 0.036498 -0.016862 0.097642 -0.055757 0.059414 0.051400 0.060242
-0.048130 -0.148730 0.074409 -0.218234 -0.104808 0.074680 0.213894 0.165796 0.003545 0.110962 0.086531 0.139502 0.012676 0.184494 -0.026133 0.068541
0.024556 -0.068450 -0.000002 0.046184 0.004152 0.000022 -0.008258 -0.026690 0.087728 -0.073745 -0.007691 0.026720 0.072177 -0.020955 0.106842 -0.008771
-0.130776 0.004668 0.073530 -0.059081 -0.041438 0.067631 0.017458 0.089443 0.069418 0.050295 0.062100 -0.025769 0.064271 0.044231 -0.081936 0.015468
-0.062816 0.032210 -0.070960 0.059737 -0.015926 -0.066125 -0.031093 0.074280 -0.049822 -0.014699 0.033203 0.088226 0.095392 0.056394 -0.066977 -0.008415
-0.045344 0.233937 0.068249 0.102981 -0.005364 0.058123 -0.090379 -0.147717 0.089566 0.073021 -0.071572 -0.203209 -0.149409 -0.221714 0.029096 0.028414
0.130953 -0.140486 -0.128492 0.105526 0.163218 -0.106862 -0.166208 -0.171106 0.208162 -0.152949 -0.093203 0.008252 0.184010 -0.161115 0.172277 0.079689
0.019557 0.025963 0.010250 0.013981 0.019802 0.009321 -0.005036 -0.006900 0.009791 0.005343 0.011423 -0.019116 0.000222 -0.007367 0.007118 -0.009796
-0.183484 -0.205804 0.077444 -0.094124 0.014630 0.087879 0.033430 0.066268 0.371122 0.140460 0.045059 -0.085027 0.211954 -0.122165 0.045506 0.182721
-0.132928 0.021523 0.064993 -0.031810 -0.016438 0.070343 0.015227 0.098082 0.046190 0.056884 0.069829 -0.007524 0.073177 0.041252 -0.106176 0.007989
-0.032771 0.146124 0.055891 0.011849 -0.060668 0.046429 0.063899 0.101488 -0.346807 -0.022805 0.156533 0.056674 -0.019925 0.250419 -0.135060 -0.207954
0.101055 -0.162964 0.289771 -0.277894 0.359618 0.240035 0.271706 0.040143 -0.078546 0.270459 0.417571 -0.339545 -0.219932 0.173668 -0.146746 0.070369
0.010959 -0.089847 0.011658 -0.134679 -0.014170 -0.005415 0.148819 0.112955 -0.157106 -0.007829 0.098264 0.133186 -0.019057 0.192428 0.020713 -0.081725
0.009682 -0.071194 -0.039464 0.016249 0.035082 -0.014676 0.035998 0.032911 0.032932 -0.049276 0.017545 0.029111 0.113729 0.025711 0.050839 -0.000925
0.069572 0.032671 -0.096223 0.095176 0.091085 -0.079932 -0.097457 -0.059273 0.021429 0.056451 -0.095187 -0.049610 0.025930 -0.121714 0.007360 0.085368
0.018391 -0.024961 0.132303 -0.029509 0.055491 0.106605 0.072318 -0.060935 -0.043277 -0.065690 0.101921 -0.052605 -0.092230 0.052232 0.104602 -0.072854
0.015437 -0.148545 -0.075450 0.017462 0.109923 -0.046741 -0.060443 0.073870 0.159181 -0.000106 0.033059 0.004725 0.195178 -0.065808 -0.007536 0.136659
-0.083212 0.057119 0.170183 -0.066687 -0.114399 0.150859 0.090123 -0.016394 0.044439 -0.005912 -0.006744 -0.017526 -0.128775 0.030195 0.129926 -0.077485
0.002464 -0.011466 -0.006026 0.006715 0.020474 -0.005880 -0.025220 0.011711 0.046385 -0.018252 0.001569 0.005156 0.030426 -0.019560 0.022830 0.009056
0.024361 -0.153661 0.067663 -0.204932 -0.147776 -0.014083 0.221660 0.152672 -0.033905 0.062683 -0.040822 0.138603 -0.026792 0.119673 0.069310 0.072841
0.000148 -0.148248 0.031040 -0.036510 0.054304 0.043040 0.007576 0.088539 0.168015 0.018950 0.096875 -0.006626 0.157232 0.006855 -0.038196 0.085401
-0.011043 0.027163 0.085093 0.012357 -0.043164 0.100341 0.043584 -0.052859 -0.016959 -0.040487 -0.013115 -0.056078 -0.084889 -0.037540 0.050000 -0.047957
0.302716 -0.304146 -0.238182 0.191503 0.311254 -0.198870 -0.160882 -0.186394 0.363467 -0.129714 -0.180545 -0.110322 0.342820 -0.259212 0.241175 0.275917
0.041912 -0.062388 -0.175156 0.182142 -0.027609 -0.173966 -0.128426 -0.011910 0.107730 -0.286326 -0.125737 0.186125 0.230065 -0.053750 0.081951 0.026062
0.007574 0.441986 -0.080094 0.229647 0.122993 -0.172160 -0.184534 -0.060876 -0.460843 0.091928 0.100697 -0.160490 -0.197292 0.076214 -0.333866 -0.128249
-0.009153 -0.034451 0.006513 -0.015663 -0.009236 -0.010825 0.048121 0.045804 0.002444 0.016824 -0.018030 0.056895 0.004171 0.030587 -0.003682 0.024523
0.007046 0.000059 -0.011964 0.010676 -0.002492 -0.005648 -0.006518 -0.014620 0.008158 0.003779 -0.008420 0.006752 -0.009815 -0.010205 0.020240 -0.001058
-0.126850 0.133635 0.002414 0.074532 -0.118432 -0.029050 -0.103554 0.010380 0.001268 -0.040363 -0.009340 0.045381 0.072167 -0.001849 -0.024670 -0.076362
-0.030221 -0.044971 0.038750 -0.044609 -0.027044 0.029191 0.078056 0.110565 0.055577 0.110738 0.080931 0.026334 0.074871 0.058749 -0.045699 0.099198
-0.000706 -0.003510 -0.003070 -0.000535 -0.005948 -0.009043 0.013368 0.011244 0.000001 0.001753 -0.005385 0.023703 -0.000771 0.007597 -0.003709 0.004566
-0.071980 0.011736 -0.060979 0.098091 -0.035592 -0.069638 -0.036028 0.022884 -0.207982 -0.158719 0.099900 0.072998 0.053366 0.218038 -0.082879 -0.190674
-0.023745 -0.035425 0.046258 -0.016593 0.025181 0.024322 0.020560 0.026378 0.070859 0.053385 0.062294 -0.025268 0.056005 0.028839 -0.031819 0.023940
0.002794 -0.005326 0.003476 -0.003271 0.001280 -0.003136 0.000481 -0.000083 0.005578 -0.000004 -0.001825 -0.000283 0.008112 -0.000859 0.004912 0.002457
-0.012751 0.005639 -0.007528 0.014992 0.001046 -0.002956 0.001375 0.019456 0.045960 0.022939 0.017614 0.000421 0.040518 -0.017845 -0.009450 0.046115
-0.041301 0.061173 0.105861 0.017623 -0.066579 0.126713 0.027678 -0.051706 0.007323 -0.045762 -0.032443 -0.069446 -0.107507 -0.057270 0.063583 -0.073947
0.247449 -0.292913 -0.172298 -0.105613 0.019150 -0.200581 0.137067 -0.006388 -0.011962 0.234073 -0.144193 0.155510 -0.066764 -0.093981 0.013294 0.387944
-0.003717 0.002644 0.017573 0.004895 0.006338 -0.005176 -0.005604 0.001742 -0.005211 0.021535 0.006788 0.004447 -0.004406 -0.003839 -0.028081 0.011126
0.073915 0.045917 0.027691 -0.027448 -0.001088 -0.014010 0.087288 -0.000998 -0.107326 0.156856 0.012959 -0.016432 -0.079761 0.022562 -0.077898 0.048157
0.059306 0.150633 -0.108085 0.159335 0.172193 -0.103537 -0.145498 -0.130848 -0.074884 0.117761 -0.065240 -0.157690 -0.076748 -0.222344 -0.157062 0.156899
0.035178 0.014965 0.010820 0.019465 0.020342 0.012377 -0.000652 -0.009964 0.053973 -0.000007 -0.020988 -0.004047 0.039688 -0.019488 0.053107 0.032095
-0.075686 0.084510 0.022820 0.045015 -0.044751 0.032502 0.000966 0.064886 -0.057669 -0.057282 0.045008 -0.000159 0.005043 0.042733 -0.043028 -0.054009
-0.060098 0.013094 -0.015449 0.059027 -0.048571 -0.039951 -0.028060 0.073905 -0.079689 -0.020023 0.030084 0.049930 0.025478 0.058643 -0.049911 -0.056391
0.020718 -0.038865 0.046862 -0.151232 -0.048581 0.036989 0.090990 0.027788 -0.034516 0.142212 0.039757 0.026754 -0.115470 0.032896 -0.051631 0.042318
-0.019708 -0.004773 0.008700 -0.052117 -0.021037 -0.020246 0.050192 0.045742 0.018152 0.020470 -0.012081 0.000459 0.011668 0.020071 -0.020594 0.034262
0.003707 0.016159 -0.159210 0.205095 -0.040360 -0.181369 -0.066367 0.131418 -0.293975 -0.128421 -0.093524 0.288156 0.108943 0.101579 -0.209128 -0.035991
0.218016 -0.057941 -0.048483 0.060978 0.401432 -0.053654 -0.061121 0.100731 0.054352 0.223592 0.215260 -0.183289 0.301447 -0.070589 -0.029835 0.227558
0.110135 -0.447744 -0.023854 0.166276 0.110155 -0.025468 -0.153527 -0.165169 0.459789 -0.517745 -0.034761 0.116484 0.458540 -0.146902 0.455438 -0.018956
0.028418 -0.156818 -0.021784 0.096201 0.025228 -0.018285 -0.068920 -0.070956 0.167301 -0.176886 -0.023740 0.063819 0.172395 -0.053816 0.169500 -0.015889
0.258747 0.686761 -0.122149 0.381185 0.373099 -0.147934 -0.392390 -0.378103 -0.247979 0.432464 -0.128508 -0.479759 -0.408859 -0.496328 -0.423445 0.238638
0.049913 0.167382 -0.048142 0.069635 0.013334 -0.061841 0.000251 -0.024060 -0.083603 0.238265 -0.062392 -0.145349 -0.166833 -0.117088 -0.204773 0.158037
0.001012 -0.002771 -0.027583 0.056388 0.009327 -0.035866 -0.034862 0.010434 0.040031 -0.058414 -0.010086 0.027413 0.077335 0.008375 0.028340 -0.012115
-0.046952 0.039423 0.054958 -0.026929 -0.009123 0.051507 0.016513 0.010952 0.068808 0.078134 0.018641 -0.042429 -0.017237 -0.003478 -0.055674 0.033492
-0.112114 0.016724 0.066404 -0.041264 0.016472 0.090754 0.003266 0.051701 0.078707 0.085488 0.070043 -0.042808 0.048311 -0.027518 -0.090783 0.044987
0.280643 -0.336825 0.019396 -0.504876 -0.188081 -0.037259 0.751576 0.589410 -0.301909 0.347169 0.123288 0.704807 -0.090545 0.734802 0.129590 0.354641
0.007329 0.056431 -0.002620 0.011073 0.013425 -0.012367 -0.019994 -0.017463 -0.007467 0.022631 -0.000675 -0.017856 -0.008216 -0.025142 -0.011889 -0.002214
-0.073356 -0.043016 0.097642 -0.016857 0.017030 0.075929 0.006841 0.048037 0.053378 0.037941 0.042960 -0.083616 0.036535 0.003201 -0.061501 0.035904
-0.037656 0.251012 -0.023633 0.175344 0.042844 -0.081813 -0.124343 -0.055713 -0.187649 0.009237 0.012829 -0.107389 -0.073150 0.040595 -0.142030 -0.111195
-0.142681 -0.062134 0.197052 -0.110875 0.029581 0.116345 0.064016 0.133355 0.156305 0.127178 0.199141 -0.028392 0.102718 0.070233 -0.036478 0.073067
-0.151710 -0.154754 0.108353 -0.037825 -0.014296 0.082430 0.054888 0.136000 0.203892 0.083380 0.107849 -0.043907 0.231830 0.044494 -0.103824 0.088922
-0.050092 -0.001394 0.052956 0.003309 0.000562 0.044528 0.010689 0.030442 0.058058 -0.013210 0.038282 -0.031696 0.039672 0.029609 0.015537 0.005828
-0.325864 -0.437303 0.978565 -0.591250 0.513288 0.863335 0.512051 0.340810 0.437238 0.200228 1.183047 -0.730081 0.244549 0.418293 -0.162515 -0.098625
0.020595 -0.058964 -0.094980 -0.255303 -0.279832 -0.153278 0.281240 0.301158 -0.326305 0.215961 -0.140720 0.290800 -0.098699 0.280397 -0.166172 0.087500
0.085412 -0.167317 0.157132 -0.133502 0.094473 0.149421 0.167598 -0.036983 -0.039840 -0.143441 0.176387 -0.059465 -0.011868 0.089724 0.202760 -0.146721
-0.024436 0.054783 0.028806 0.051798 0.155565 0.034165 -0.088468 -0.012522 0.124903 0.137602 0.011070 -0.236444 0.114977 -0.124673 -0.127346 0.190249
-0.141937 0.102328 0.043592 0.097506 -0.041079 0.027603 -0.035238 0.104859 0.059459 0.012882 0.063877 0.037239 0.118812 0.044760 -0.074630 -0.015540
-0.115649 0.148621 -0.090056 0.119345 -0.045798 -0.107945 -0.094924 0.128696 -0.066507 -0.101246 -0.017258 0.073295 0.119358 0.117638 -0.149732 -0.116505
-0.025183 -0.086220 -0.079194 0.083162 -0.162029 -0.042355 0.036986 0.127908 0.144561 -0.118225 -0.142105 0.277133 0.214634 0.032499 0.144176 0.019332
-0.058479 0.090629 -0.003156 0.062913 -0.026176 -0.004465 -0.006866 0.047599 -0.060040 -0.001609 0.008663 0.040970 0.020698 0.051276 -0.071742 -0.057422
0.012085 0.022940 0.010462 -0.039126 -0.026791 -0.003195 0.048893 0.026450 -0.022428 0.011708 -0.006404 0.014769 -0.007888 0.032401 0.001285 0.020124
-0.090245 -0.052820 0.064565 -0.037845 0.021710 0.042959 0.027305 0.050681 0.106114 0.082914 0.078668 -0.011155 0.063485 0.022711 -0.077523 0.032026
0.002168 -0.129606 -0.079304 -0.058964 -0.068913 -0.082930 0.125712 0.079639 -0.004403 0.084906 -0.066060 0.124791 0.016020 0.074168 0.013885 0.095678
0.042669 -0.172395 0.341901 -0.212007 0.247635 0.278865 0.201690 -0.110648 0.009233 -0.115481 0.483220 -0.205668 -0.112892 0.184306 0.071371 -0.252877
-0.089506 0.067155 0.086914 0.011703 -0.078907 0.151854 -0.039192 -0.066550 0.111240 -0.055548 -0.029990 -0.045289 -0.062271 -0.092178 0.074307 -0.085606
0.142657 0.101750 -0.075307 -0.027399 0.062927 -0.096376 0.083189 -0.037424 -0.129492 0.235158 -0.032871 -0.041306 -0.162977 -0.020392 -0.115337 0.161543
0.104659 0.499917 -0.136874 0.412655 0.228887 -0.114434 -0.342587 -0.269115 0.038672 0.222400 -0.104003 -0.340939 -0.130671 -0.446846 -0.286706 0.171287
-0.014153 -0.067382 0.067913 -0.083833 -0.002102 0.068467 0.035173 0.090185 0.088171 0.067239 0.099578 -0.018996 0.095690 0.006331 0.000828 0.086923
0.038542 -0.150915 -0.083647 -0.145794 -0.224809 -0.048672 0.255080 0.172716 -0.027940 0.116118 -0.145569 0.284238 -0.104929 0.170164 0.041740 0.103155
-0.269306 0.194206 0.128887 0.094670 -0.193632 0.124359 -0.038627 0.159098 0.099079 -0.021244 -0.040487 -0.024995 0.027688 0.036494 -0.064904 -0.064374
0.062868 0.010249 -0.035473 0.001498 0.048055 -0.028878 0.001644 -0.042875 -0.062368 0.032495 0.015066 -0.017281 -0.038328 -0.013940 -0.009128 0.038646
0.084163 -0.091673 -0.074506 -0.001611 0.028392 -0.058366 0.010988 -0.000182 0.033495 -0.080709 -0.014890 0.083132 0.067736 0.017116 0.076170 0.026573
-0.124897 0.042507 -0.159116 -0.062933 -0.213883 -0.159900 -0.008367 0.217201 -0.117903 0.029574 -0.054687 0.208249 0.061082 0.148109 -0.123899 0.003698
0.005747 0.110977 0.016058 0.062882 -0.001125 0.009118 -0.044562 -0.066152 0.023960 0.039785 -0.040263 -0.075822 -0.084310 -0.093358 -0.014144 0.014756
-0.151146 -0.155554 0.175821 -0.081989 0.163238 0.215510 -0.037772 0.116282 0.440234 0.041321 0.205312 -0.271224 0.369616 -0.060121 -0.044613 0.136683
0.147907 0.128339 -0.032894 0.114134 0.189293 -0.014435 -0.046583 -0.138691 0.007269 0.053948 -0.009450 -0.122728 -0.084492 -0.168283 -0.009562 0.124053
0.054410 -0.136926 -0.079076 -0.144094 -0.064491 -0.058037 0.116059 0.117095 -0.066588 0.099419 -0.056537 0.169845 -0.121176 0.096049 0.007727 0.113180
0.068374 0.161622 0.079259 0.203219 0.046873 0.080533 -0.210094 -0.263113 0.231058 -0.210433 -0.040448 -0.111225 -0.023714 -0.212939 0.300089 -0.152081
0.028357 -0.030119 0.022088 -0.017979 0.029432 0.023391 0.039791 -0.006331 -0.027855 -0.005291 0.013085 -0.003755 -0.031022 0.011478 0.017472 -0.023422
0.090353 -0.306026 -0.128445 0.083259 0.101505 -0.135197 -0.022683 0.160288 0.177917 -0.052858 -0.002625 0.190757 0.436901 0.035937 0.071472 0.121704
-0.020755 0.021570 0.052929 -0.009901 -0.055175 0.032148 0.015568 -0.009237 0.026841 0.005661 -0.005240 -0.002900 -0.054021 -0.027041 0.011235 0.004861
0.000001 -0.000001 0.000001 0.000001 -0.000001 0.000000 -0.000000 -0.000001 -0.000000 0.000001 0.000000 0.000000 -0.000001 -0.000001 0.000001 -0.000000
-0.116928 0.066713 -0.030323 0.059091 -0.073590 -0.021771 -0.007804 0.092539 -0.085486 -0.021983 0.014976 0.063492 0.034603 0.108314 -0.048175 -0.086921
0.655331 0.036800 -0.379323 0.504135 0.580581 -0.408074 -0.310800 -0.477901 -0.004584 0.004646 -0.137307 -0.200786 0.113152 -0.453910 0.093818 0.299174
-0.370135 -0.315119 0.650553 -0.309971 0.030451 0.602694 0.223114 0.179129 0.360806 0.159519 0.563133 -0.366035 0.165019 0.187599 -0.042286 -0.065253
0.069326 0.085343 -0.019927 0.086154 0.101596 -0.019044 -0.026600 -0.059579 -0.046508 0.085654 -0.008636 -0.095624 -0.059336 -0.066838 -0.048573 0.063993
-0.142272 0.098176 -0.056412 0.121471 -0.123108 -0.092017 -0.082035 0.109015 -0.048701 -0.036084 -0.013209 0.120734 0.117421 0.089952 -0.067860 -0.079574
0.218098 0.027548 0.179594 -0.094197 0.198583 0.137468 0.151312 -0.176642 -0.280306 -0.068013 0.206665 -0.116060 -0.262662 0.098561 0.193738 -0.154146
0.176068 0.038123 -0.051879 0.235501 0.092173 -0.051363 -0.109914 -0.174906 0.030867 -0.273905 0.015396 0.053201 0.089708 -0.083524 0.119099 -0.068791
0.965637 0.338434 -0.054307 0.465907 0.907087 -0.028869 -0.088249 -0.678406 -0.063141 0.233338 0.064484 -0.523783 -0.289509 -0.387438 0.156399 0.345631
0.133811 -0.160067 -0.087469 0.001833 -0.080030 -0.105010 0.026196 -0.040251 0.154770 -0.015684 -0.205805 0.172219 0.029677 -0.112991 0.177798 0.137831
0.101731 -0.103325 -0.003800 -0.021802 -0.050359 -0.021528 0.092347 0.017287 0.167425 0.064923 -0.086840 0.103670 0.004197 -0.062679 0.184166 0.175522
0.113687 -0.099335 -0.222184 0.227819 0.086694 -0.238636 -0.187684 -0.016596 0.143383 -0.020339 -0.170114 0.086754 0.318515 -0.142562 0.054710 0.146509
0.017641 -0.066247 0.051565 -0.057150 0.031092 0.054570 0.095941 0.029900 -0.094945 -0.020469 0.105513 0.022505 -0.024412 0.111970 0.018601 -0.026888
0.046758 -0.072567 -0.043406 0.053436 0.013974 -0.016296 -0.032372 -0.053226 0.099043 -0.095754 -0.030130 0.015046 0.058466 -0.081812 0.048543 0.022523
-0.187343 0.201077 0.124596 0.022632 -0.180513 0.180831 -0.053691 0.006031 0.091418 -0.039785 -0.030733 -0.078179 -0.126529 -0.054923 0.049163 -0.142774
-0.074787 0.103746 0.066206 0.028454 -0.137456 0.107361 -0.059172 -0.086874 0.117085 -0.056717 -0.100061 0.001773 -0.091737 -0.075025 0.094347 -0.094648
-0.066825 -0.221554 -0.052877 -0.269394 -0.215485 -0.049733 0.242636 0.240208 -0.064792 0.153209 -0.013995 0.250136 0.042191 0.246338 -0.071746 0.094903
0.155999 -0.170145 -0.086883 0.187600 0.117683 -0.049840 -0.223997 -0.239069 0.404179 -0.377143 -0.147484 0.028384 0.210867 -0.214471 0.337493 -0.001346
-0.478596 0.343110 0.009768 0.183153 -0.358711 0.014540 -0.158707 0.275973 -0.042292 -0.165944 -0.068091 0.184556 0.194320 0.122014 -0.166934 -0.285663
0.047115 0.082870 -0.017110 0.056728 0.073627 -0.039525 -0.055787 -0.075362 -0.106488 0.112612 -0.056217 -0.067453 -0.142445 -0.075984 -0.045804 0.060049
-0.191575 0.040306 -0.010700 -0.018050 -0.091098 0.031226 -0.013463 0.282558 -0.027888 0.115893 0.130877 0.056308 0.221240 0.130582 -0.243609 0.016696
-0.160570 0.097790 -0.246134 0.055154 -0.191105 -0.263874 0.110338 0.265630 -0.342109 0.121364 0.007172 0.260755 0.025060 0.326612 -0.344799 0.067834
0.034589 -0.046697 0.037198 -0.025801 0.042110 0.018859 0.080412 0.033673 -0.119460 -0.039253 0.055441 0.015536 -0.004836 0.059660 0.047403 -0.076292
0.039004 -0.075163 -0.148288 -0.139960 -0.189921 -0.123600 0.067004 0.059444 -0.128090 0.040127 -0.182539 0.163330 -0.065394 0.020975 -0.000968 0.032491
-0.012232 -0.035013 -0.002236 -0.026317 -0.002508 0.007121 0.036995 0.027252 0.007268 0.015821 0.009716 0.014301 0.013135 0.045966 -0.000728 0.030517
-0.815570 0.614404 -0.189573 0.530759 -0.645048 -0.178820 -0.442232 0.634488 -0.152711 -0.855284 -0.045444 0.475927 0.633259 0.557972 -0.247955 -0.976447
0.013906 -0.002317 0.010027 -0.002108 0.011175 0.004891 0.007695 -0.007816 -0.004209 -0.006190 0.010055 -0.004254 -0.007181 0.012056 0.013347 -0.012994
0.000060 -0.039332 0.024100 -0.028972 0.008259 0.015905 0.022057 0.037614 0.054135 0.022607 0.042315 -0.012182 0.046836 0.010833 -0.019896 0.024866
-0.023552 0.008495 0.006983 0.038686 -0.031061 0.021145 -0.004705 0.036107 0.014066 -0.041584 0.034415 0.036845 0.034923 0.058751 0.027019 -0.033800
0.180357 0.169534 -0.022422 0.083673 0.134693 -0.030185 -0.025500 -0.095460 -0.102648 0.155353 0.009736 -0.143170 -0.115428 -0.053206 -0.032179 0.063662
0.046231 0.184807 -0.022823 0.197815 0.032216 0.006789 -0.104505 -0.192789 0.064922 0.052571 -0.099737 -0.131069 -0.126517 -0.243095 0.038800 0.036021
0.534872 -0.253479 0.193923 -0.144487 0.444944 0.153811 0.310035 -0.252413 -0.234325 -0.019162 0.340435 -0.153771 -0.160171 0.225776 0.331827 -0.063849
0.093544 -0.085422 0.004772 -0.134259 -0.005612 0.017329 0.142689 -0.008661 -0.154003 0.031929 0.024275 0.050284 -0.137957 0.087518 0.097470 0.001662
-0.002056 0.017160 0.014374 -0.040500 -0.053153 -0.008151 0.043581 0.018000 -0.019535 0.033661 -0.029440 0.026943 -0.040343 0.023965 0.010002 0.011599
0.000797 0.000137 0.006814 -0.005617 -0.002359 0.010095 0.019303 0.015101 0.016664 -0.006868 0.024247 0.015076 0.007630 0.011392 0.009657 0.007967
-0.127022 0.142677 0.062747 0.105107 -0.111346 0.012505 -0.067503 -0.052486 -0.100037 -0.288471 0.070071 0.023971 0.019855 0.132407 0.060412 -0.356088
-0.010609 -0.000359 -0.000102 0.015298 0.016772 0.000452 0.002310 0.021762 -0.001660 0.048266 0.012240 -0.002499 0.022384 -0.007817 -0.018438 0.029951
-0.129839 -0.050009 0.078289 -0.068944 -0.014535 0.020062 0.029387 0.077917 0.125055 0.093710 0.068670 -0.028842 0.043649 0.020778 -0.086318 0.036524
0.019618 -0.039801 -0.025036 -0.054084 -0.064190 0.001888 0.038114 0.004164 -0.013153 -0.009549 -0.052683 0.085006 -0.030422 0.044429 0.060336 0.014815
0.147793 -0.169150 0.096287 -0.142759 0.156436 0.099990 0.130792 -0.008020 0.007611 -0.031802 0.179608 0.012001 0.038605 0.086284 0.216744 -0.027408
-0.514802 -0.400396 0.922298 -0.582191 0.407631 0.778966 0.442131 0.469733 0.541660 0.250068 1.096280 -0.551782 0.419880 0.394499 -0.240652 0.001154
-0.098587 0.204633 -0.286976 0.347820 -0.251700 -0.288003 -0.229833 0.372582 -0.094513 -0.263000 0.000918 0.479306 0.460845 0.292445 -0.133642 -0.260429
0.104339 0.027804 -0.037227 0.057036 0.089321 -0.036080 0.035244 -0.066575 -0.029180 0.080160 -0.032127 -0.040083 -0.095618 -0.107397 0.008349 0.118854
-0.069546 0.032902 -0.040446 0.035196 -0.072213 -0.032136 -0.001710 0.106934 -0.036030 0.012381 0.002964 0.080693 0.067429 0.071403 -0.074511 -0.010447
-0.096152 0.206449 -0.107142 0.211046 -0.100453 -0.119430 -0.040313 0.246560 -0.220028 -0.014415 0.065478 0.218138 0.205368 0.257097 -0.243971 -0.086916
0.027303 0.077980 -0.013982 0.050928 0.045217 -0.009690 -0.004021 -0.012867 -0.053522 0.047524 0.002472 -0.060018 -0.035181 -0.046572 -0.081789 0.047607
-0.028488 0.058727 -0.075413 0.019533 -0.055427 -0.092347 0.005182 0.057767 0.000530 0.041050 -0.069570 0.085410 0.058896 0.025819 -0.067226 0.033140
-0.059137 0.075257 0.079058 0.057142 -0.035392 0.052603 -0.061600 -0.041644 0.094017 -0.006049 -0.066337 -0.071347 -0.029866 -0.079364 0.042720 0.017106
-0.173696 0.138531 -0.051150 0.107754 -0.130712 -0.055071 -0.076108 0.154150 -0.045928 -0.048329 0.049134 0.104906 0.131742 0.133075 -0.115867 -0.059822
-0.170122 0.070555 0.084083 -0.103912 -0.282907 0.069527 0.054180 0.033838 -0.013852 -0.067346 -0.104725 0.104166 -0.079354 0.112252 0.144349 -0.162077
-0.307850 0.147778 0.074510 0.003387 -0.127598 0.097343 0.178607 0.665954 -0.277159 -0.284589 0.491513 0.371819 0.543529 0.778743 -0.267936 -0.537489
-0.032517 -0.097073 0.082580 -0.013267 -0.029924 0.091323 -0.003786 -0.032232 0.219837 0.023719 -0.033117 -0.085187 0.029560 -0.096476 0.147095 0.053679
0.156132 -0.088085 -0.113229 -0.013528 0.071803 -0.085525 0.052677 0.004954 0.006516 0.010347 -0.054363 0.078917 0.097336 0.007530 0.070302 0.117474
0.459526 0.506435 -0.246717 0.211986 0.342587 -0.256214 -0.083552 -0.097519 -0.359959 0.659597 -0.152906 -0.295104 -0.406409 -0.288305 -0.545315 0.356746
-0.095252 0.124704 0.051866 0.060732 -0.049814 0.042522 -0.027563 0.032159 -0.100550 -0.070782 0.078649 -0.021555 0.030059 0.087036 -0.069824 -0.113627
0.131172 -0.172907 -0.114922 -0.133967 -0.125888 -0.144435 0.183733 0.132785 0.046476 0.274163 -0.151793 0.265464 -0.043185 0.064023 -0.025400 0.260171
-0.077522 0.040882 0.084833 0.036286 -0.050124 0.079783 -0.049889 -0.070822 0.123747 -0.054925 -0.038285 -0.063042 -0.034502 -0.082434 0.053153 -0.039763
-0.160867 -0.018746 -0.046904 -0.140186 -0.287072 -0.031807 0.136362 0.219530 0.011660 0.182546 -0.191122 0.157833 -0.041035 0.092484 -0.058491 0.095116
-0.001350 0.035812 0.021890 0.009009 -0.001683 0.035128 -0.004169 -0.024003 0.023064 0.001356 -0.045063 -0.015327 -0.030074 0.016498 0.026060 -0.001932
0.030805 -0.276510 -0.041641 -0.309265 -0.147238 -0.032742 0.350942 0.193212 -0.146176 0.133383 -0.055551 0.282360 -0.107622 0.170403 -0.027545 0.135930
-0.002324 -0.026068 0.050154 -0.043644 0.006120 0.027544 0.038000 0.075937 0.068380 0.059293 0.083666 -0.018487 0.049653 0.025587 -0.049068 0.046846
-0.307099 -0.047802 0.083255 -0.077418 -0.251814 0.084265 -0.010871 0.120427 0.147622 -0.004882 -0.007193 0.065670 0.083537 0.063520 0.027796 -0.035568
-0.012315 0.029396 -0.063609 0.108382 0.064847 -0.083406 -0.119135 -0.045044 0.002134 -0.039904 -0.034415 0.001298 0.092390 -0.054223 -0.036330 0.002310
0.091445 0.074545 0.033969 0.043959 0.087978 0.028891 0.014418 -0.141987 -0.106334 -0.054503 0.035165 -0.060046 -0.125953 -0.030580 0.006149 -0.086582
0.015977 0.037343 -0.007060 0.028323 0.032815 -0.006306 -0.040375 -0.019566 -0.010081 0.015512 -0.007608 -0.055958 -0.023106 -0.032062 -0.023905 0.013960
0.040539 -0.383332 -0.226738 -0.524753 -0.582435 -0.289688 0.659937 0.536881 -0.241953 0.428472 -0.244017 0.790225 -0.224257 0.474906 -0.140914 0.291878
-0.068647 0.111539 -0.121163 0.104695 -0.154155 -0.123695 -0.053355 0.154447 -0.133828 -0.043565 0.002052 0.212240 0.146943 0.147590 -0.119116 -0.095308
0.012325 -0.312230 0.557693 -0.632681 -0.016147 0.558846 0.632592 -0.088954 -0.182166 -0.101465 0.455150 -0.044597 -0.407423 0.452925 0.361167 -0.397194
0.046389 0.214944 0.002879 0.128138 0.083709 0.015023 -0.176644 -0.116874 0.029246 0.050411 -0.026512 -0.186750 -0.060896 -0.173139 0.002033 0.056812
-0.199572 0.018866 0.156201 -0.063557 -0.058745 0.097750 -0.005814 0.060367 0.248458 0.123958 0.048444 -0.083679 0.038516 -0.039385 -0.087681 0.055823
-0.270049 0.196795 -0.928951 0.254505 -0.773048 -0.989105 -0.115196 0.723131 -0.648230 0.228726 -0.597475 1.080479 0.394563 0.357201 -0.633950 0.261346
0.000005 0.003893 0.010364 0.001011 0.000000 0.008841 -0.001982 -0.009156 0.008752 -0.000083 -0.007930 -0.011792 -0.007450 -0.004726 0.003207 -0.000000
-0.003761 0.100156 0.026345 0.009176 -0.007609 0.048894 -0.042440 -0.049137 0.021355 0.006606 -0.034211 -0.031695 -0.079202 -0.069406 0.035320 -0.011336
-0.100759 0.015073 0.065863 0.085209 0.050215 0.054870 -0.065490 0.123914 0.072540 0.000847 0.139063 -0.067000 0.173366 0.062692 -0.096738 0.043474
-0.110551 -0.098444 0.142247 -0.060487 0.108204 0.144390 0.089561 0.178629 0.119043 0.123127 0.177491 -0.058676 0.216635 0.110268 -0.096195 0.058729
-0.146440 0.121090 0.134528 0.062790 -0.085710 0.109949 -0.100487 -0.061421 0.255597 0.005947 -0.048161 -0.101587 -0.021086 -0.172862 0.093754 0.032244
0.204997 -0.078758 0.157971 -0.134684 0.167539 0.122867 0.193807 -0.034174 -0.287595 -0.099057 0.254037 -0.027773 -0.081829 0.175201 0.170846 -0.135572
-0.069865 0.089649 -0.014709 0.043193 0.005442 -0.025014 -0.046093 0.037800 -0.015002 -0.018946 -0.002777 0.022027 0.053871 0.023902 -0.022099 -0.052117
-0.087015 0.146440 0.016044 0.151861 -0.053280 -0.048997 -0.079328 0.005218 -0.104136 -0.030514 0.076088 0.016737 0.025979 0.000077 -0.051236 -0.085219
-0.251155 0.026882 0.125236 -0.157964 -0.393852 0.132726 0.036357 0.032010 0.036513 0.110313 -0.196648 0.059587 -0.307018 -0.154052 0.156610 -0.023377
0.223233 0.026941 -0.083918 0.118926 0.236846 -0.089668 -0.070129 -0.157931 0.004786 0.155313 -0.037168 -0.178355 -0.043571 -0.197666 0.050677 0.222648
0.012932 -0.069820 -0.152333 -0.145141 -0.109030 -0.135706 0.055837 0.183321 -0.082641 0.155169 -0.060279 0.161726 -0.025678 0.103280 -0.100853 0.156338
0.023162 -0.015809 0.028270 -0.037976 0.023467 0.005230 0.071859 0.010961 -0.069834 0.004037 0.016110 0.013061 -0.021953 0.038562 0.028186 0.005303
0.077645 -0.228506 -0.059181 0.011551 0.024785 -0.103631 -0.004163 0.032885 0.195507 0.020837 -0.087510 0.096685 0.202141 -0.071928 0.091570 0.116904
0.074905 -0.060871 -0.150359 -0.173702 -0.113053 -0.140824 0.160856 0.198896 -0.084184 0.272758 -0.109995 0.133506 -0.133393 0.082809 -0.125614 0.263010
0.080567 -0.002398 0.006575 -0.016018 0.042058 0.020282 0.036926 0.011186 -0.125784 -0.078651 0.095950 0.069222 -0.021756 0.186612 0.086425 -0.138478
-0.035083 0.126036 0.233947 0.050459 0.014313 0.193151 0.022204 -0.089090 -0.089749 -0.182643 0.139219 -0.046993 0.008715 0.067492 0.184139 -0.280795
0.038136 -0.002620 -0.000025 0.046049 0.027144 0.000036 -0.017323 -0.049588 0.021469 0.001311 -0.001380 -0.018418 0.052925 -0.012823 0.044012 0.003658
-0.501984 0.557758 -0.338060 0.582656 -0.469815 -0.330768 -0.319806 0.472402 -0.365137 -0.128355 -0.004900 0.412143 0.425864 0.360485 -0.553797 -0.288840
-0.082641 0.357633 -0.211697 0.252843 -0.107201 -0.227739 -0.144952 0.222998 -0.273145 0.142460 0.042239 0.221772 0.114567 0.085597 -0.390282 0.047680
0.157767 0.109774 -0.048109 0.049670 0.103732 -0.060163 -0.025937 -0.089595 -0.093161 0.138840 -0.026756 -0.138389 -0.146849 -0.080059 -0.097685 0.132024
-0.022427 -0.010463 -0.080963 0.072033 -0.027230 -0.075632 -0.050218 0.059771 -0.017474 -0.024153 -0.006651 0.065408 0.086935 0.043290 -0.024191 -0.011757
-0.072505 -0.178759 -0.142216 -0.187058 -0.256271 -0.143634 0.244248 0.305820 -0.170234 0.058076 -0.058538 0.368305 0.109217 0.300211 -0.084881 0.045431
-0.252203 0.437369 -0.126691 0.307036 -0.225769 -0.126770 -0.152035 0.269751 -0.247301 -0.032935 0.030353 0.141133 0.145629 0.218854 -0.295995 -0.138617
-0.032274 -0.335429 -0.137124 -0.367418 -0.325836 -0.088314 0.355150 0.375390 -0.111532 0.276210 -0.059073 0.389384 0.049982 0.277104 -0.037949 0.188958
0.052762 -0.142976 -0.111606 -0.172719 -0.161338 -0.099487 0.167475 0.179108 -0.120218 0.137259 -0.072485 0.242479 -0.075460 0.136121 -0.000708 0.097402
-0.068116 0.093063 -0.032865 0.057182 -0.076015 -0.023045 -0.037062 0.067134 -0.070105 -0.034523 -0.000237 0.028814 0.025016 0.030311 -0.058934 -0.044588
-0.064558 -0.143339 -0.166831 0.230997 -0.103807 -0.175895 -0.156605 0.072243 0.215074 -0.302923 -0.096770 0.201465 0.434076 0.009064 0.109305 -0.066230
0.006722 -0.008837 -0.010345 0.001276 0.009583 0.003954 0.004430 -0.002549 0.006993 0.003367 0.006490 -0.000320 -0.011036 0.005137 0.033700 0.004175
0.004149 -0.000391 0.011735 -0.006523 0.010920 0.007235 -0.006983 0.003653 0.015157 0.018943 0.000821 -0.017154 0.015395 -0.005233 -0.010986 0.012874
-0.147927 -0.094517 0.359104 -0.219648 0.115014 0.382572 0.194085 0.201518 0.113687 0.050459 0.453373 -0.136515 0.107310 0.210768 0.034706 -0.025587
0.374115 -0.122524 0.497648 -0.430717 0.422683 0.437860 0.454696 -0.208109 -0.493231 -0.211242 0.631670 -0.218299 -0.576568 0.456140 0.377796 -0.492980
0.063326 0.038199 -0.057378 0.013479 0.027776 -0.039328 -0.002193 -0.020703 -0.056614 0.060787 -0.014138 -0.024954 -0.070508 -0.034875 -0.031536 0.068031
0.173153 -0.229847 -0.094008 0.007936 0.011377 -0.090769 0.010386 0.084488 0.210875 -0.157254 -0.069626 0.285914 0.316762 0.084795 0.252051 0.079321
-0.045573 0.055460 0.005117 0.033026 -0.032003 -0.002977 -0.040586 0.026034 0.003526 -0.076878 0.017989 0.020847 0.059727 0.031581 -0.021656 -0.071612
-0.097954 0.119740 0.055934 0.038099 -0.082890 0.046570 -0.046891 -0.045252 0.073995 -0.044796 -0.061976 -0.030096 -0.048205 -0.088995 0.040886 -0.059134
0.372326 -0.069187 -0.053862 0.098517 0.345226 -0.086553 0.062756 -0.177849 -0.103202 -0.019054 0.070911 -0.055177 -0.019914 -0.065977 0.112025 0.095727
0.188328 0.099939 -0.017111 0.049204 0.122829 -0.021985 0.000598 -0.100669 -0.086189 0.119031 -0.028678 -0.130137 -0.168830 -0.062336 -0.025044 0.122560
0.001900 0.008354 0.000599 0.000287 0.006729 0.000108 -0.010597 0.001702 -0.012268 -0.005698 0.000422 -0.004385 -0.013835 0.009072 -0.009688 0.004207
0.052113 -0.065157 -0.007216 0.014614 0.007463 -0.014652 -0.002228 -0.001328 0.023505 -0.013256 -0.022658 0.007630 0.039224 0.006467 0.037614 0.011443
-0.056835 -0.077479 -0.157039 0.088873 -0.077800 -0.128876 -0.050446 0.101951 0.093752 -0.132004 -0.061088 0.102417 0.220581 0.009131 0.062852 0.018423
0.003090 0.013373 0.015014 0.002914 0.001146 -0.006417 -0.009187 0.000348 0.004954 -0.020048 -0.009675 0.004937 -0.001128 -0.002137 0.007358 0.005554
0.027447 -0.006379 0.022421 -0.022145 0.000197 0.026872 0.003201 -0.009429 -0.001459 0.028460 0.027796 -0.017568 -0.036496 -0.007612 -0.002225 0.012323
-0.542823 0.241057 0.133177 0.137926 -0.225405 0.190988 -0.253086 0.070766 0.212916 -0.093983 0.071075 -0.155818 0.169498 -0.040882 -0.151319 -0.184688
0.079917 -0.200266 -0.098910 -0.129520 -0.131876 -0.109150 0.159330 0.105234 0.037978 0.071469 -0.120877 0.223608 0.076265 0.098022 0.092683 0.143991
0.012592 -0.015887 0.000977 0.003187 0.035384 -0.022825 -0.000428 -0.009460 0.025145 -0.000001 0.008604 0.001598 0.017465 0.003455 0.027194 0.020631
0.000000 -0.000000 -0.000001 0.000000 0.000000 0.000001 -0.000001 0.000002 0.000000 0.000001 0.000000 0.000001 0.000000 -0.000000 -0.000000 0.000000
0.008560 -0.028169 -0.015191 -0.042521 -0.040423 -0.018817 0.064029 0.022248 -0.050139 0.025396 -0.003118 0.018006 -0.004966 0.032703 -0.006319 0.022022
0.186438 0.206704 -0.101951 0.186607 0.149967 -0.083548 -0.140658 -0.119933 -0.063121 0.165652 -0.059620 -0.166560 -0.024078 -0.211056 -0.172711 0.178967
0.265375 -0.426050 0.045765 -0.281358 -0.010974 0.016929 0.441517 0.071751 -0.138121 0.015474 0.072958 0.267186 -0.077456 0.235532 0.208050 0.098453
0.132620 -0.094239 -0.136319 0.081044 0.107785 -0.164517 -0.113901 -0.052766 0.066831 -0.008076 -0.019517 -0.025339 0.108116 -0.101987 0.028291 0.158634
-0.168512 0.271774 -0.017972 0.152388 -0.162810 -0.011333 -0.013126 0.239644 -0.236521 -0.012109 0.075424 0.114503 0.105819 0.234422 -0.264992 -0.202615
0.185545 -0.069069 0.173758 -0.134180 0.227370 0.140034 0.193886 -0.182494 -0.205217 -0.077549 0.253497 -0.139805 -0.173544 0.124292 0.138206 -0.147434
0.022092 0.031766 -0.078678 -0.099272 -0.066947 -0.104277 0.140317 0.037899 -0.221176 0.236631 -0.105522 0.053028 -0.220306 0.053984 -0.095936 0.147012
0.095316 -0.175608 0.036985 0.021360 0.124665 0.037051 0.070667 -0.034717 0.033297 -0.069958 0.044105 0.061267 0.024771 0.059742 0.126052 -0.038354
-0.001174 0.008160 0.015897 -0.002771 -0.001955 0.016001 -0.001133 -0.005969 0.039574 -0.000603 -0.013086 -0.020172 -0.013822 -0.021575 0.010157 -0.003575
-0.004388 0.001897 0.022403 0.033804 -0.004892 -0.001052 -0.014930 0.008127 0.068668 -0.019695 -0.030201 -0.002217 0.008304 -0.019727 0.008411 0.013844
0.145265 -0.585971 -0.061869 0.533744 0.195778 -0.057052 -0.326437 -0.180220 0.730694 -0.821846 -0.012048 0.253742 0.774131 -0.118079 0.763632 -0.098481
0.372301 0.518751 -0.054600 0.224217 0.353944 -0.049289 -0.185225 -0.362212 -0.351648 0.397017 -0.020881 -0.418691 -0.498366 -0.303542 -0.388121 0.142091
-0.149489 -0.028409 0.036965 0.048150 -0.028745 0.058740 -0.047791 0.128990 0.242102 0.006089 0.078947 -0.019417 0.231362 -0.024583 -0.037421 0.053263
0.252798 0.134485 -0.126933 0.125220 0.270423 -0.098642 -0.104780 -0.131985 -0.053156 0.185147 -0.019466 -0.207809 -0.094635 -0.202977 -0.064165 0.212814
-0.088945 0.062967 0.103154 0.009812 -0.090322 0.081049 -0.000902 -0.029106 0.075485 -0.018211 -0.051009 -0.024517 -0.084135 -0.047356 0.077673 -0.040367
-0.073503 0.067797 0.048708 0.040502 -0.027879 0.024380 -0.021188 0.031072 -0.045758 -0.120867 0.068576 0.011561 0.037701 0.051389 0.016066 -0.174095
-0.064140 0.012416 -0.020417 0.138663 -0.011345 -0.027285 -0.117347 -0.055340 0.168078 -0.101162 -0.073291 -0.014536 0.118533 -0.137463 0.073483 -0.005178
-0.076900 0.003118 0.070364 -0.037775 -0.014733 0.056808 0.012171 0.060185 0.101967 0.049794 0.064707 -0.029290 0.049028 -0.007344 -0.057026 0.042395
0.098663 -0.176522 -0.179217 0.004577 0.055097 -0.159446 -0.053506 0.039542 0.070607 -0.069614 -0.039797 0.091794 0.159908 -0.045048 0.110766 0.140306
-0.234843 0.074042 0.607196 -0.499829 -0.004336 0.559340 0.571064 0.298627 0.104007 0.550067 0.392760 -0.455223 -0.362500 0.215582 -0.183097 0.027980
0.019549 -0.039429 -0.012825 0.017190 0.030498 -0.015125 -0.028606 -0.036071 0.016109 -0.012668 -0.005068 0.007485 0.028799 -0.030962 0.031691 -0.001098
0.092314 0.139137 -0.027434 0.115460 0.101982 -0.019602 -0.085544 -0.092017 -0.103404 0.121884 -0.025014 -0.160048 -0.151778 -0.121566 -0.092059 0.072284
0.125804 0.047840 0.097215 -0.014634 0.244680 0.095074 -0.005183 -0.077522 -0.039250 0.147270 0.123165 -0.319970 -0.067814 -0.042241 -0.088425 0.132088
0.104263 0.202186 -0.030359 0.138895 0.071917 -0.045556 -0.028972 -0.077191 -0.070318 0.238838 -0.070621 -0.140060 -0.169831 -0.111006 -0.126254 0.185742
-0.436227 0.266761 0.069918 0.239236 -0.523895 0.213452 -0.220069 -0.100606 0.397799 -0.393119 -0.351918 0.015746 -0.239835 -0.241479 0.450426 -0.475945
0.097112 -0.206713 -0.107253 0.321125 0.056389 -0.077873 -0.151247 -0.005739 0.302190 -0.476244 -0.032155 0.232729 0.399190 0.012381 0.328762 -0.140913
-0.031965 0.022692 -0.136615 -0.120646 -0.203016 -0.137238 0.105764 0.186865 -0.173959 0.187701 -0.092655 0.191535 -0.100311 0.133197 -0.149678 0.079304
0.152107 0.208214 0.021960 0.099470 0.149017 0.066768 -0.004158 -0.105619 -0.050122 0.248672 0.006567 -0.233733 -0.257053 -0.138534 -0.148611 0.198167
0.004793 -0.009885 -0.001068 0.006040 0.003213 -0.003063 -0.003370 -0.003077 0.009254 -0.003592 -0.003377 0.002791 0.005964 -0.003928 0.014889 0.001274
0.776860 0.750994 -0.430142 0.756985 0.978398 -0.529253 -0.575264 -0.571745 -0.439189 0.681050 -0.044580 -0.746214 -0.425364 -0.727705 -0.673423 0.775365
0.062280 -0.030947 0.034287 0.120649 0.042294 0.041000 -0.094595 -0.205320 0.181786 -0.088210 -0.075130 -0.073861 -0.068914 -0.242430 0.199378 -0.009337
-0.000000 -0.000000 0.000000 0.000000 0.000001 -0.000000 -0.000001 0.000001 -0.000001 -0.000000 -0.000001 0.000000 0.000000 -0.000000 -0.000000 -0.000001
-0.115248 0.072295 0.088654 0.066519 -0.012771 0.094547 -0.012472 -0.001902 0.138836 0.044587 0.059044 -0.052550 0.021871 -0.055096 -0.030026 -0.032146
-0.000255 -0.000660 0.011024 -0.000204 -0.013485 -0.007007 0.030363 0.045543 0.011303 0.022418 0.027882 -0.001547 0.024346 0.040724 0.008966 0.030631
0.134118 -0.085798 -0.130787 0.118542 0.131406 -0.088734 -0.090261 -0.062343 0.111931 -0.048928 -0.073348 0.007584 0.150694 -0.102031 0.126431 0.087264
0.155453 0.110394 0.035361 0.033327 0.195889 0.035036 0.041562 -0.105556 -0.171819 0.101755 0.042052 -0.188964 -0.209507 -0.085858 -0.100046 0.084507
0.080380 0.137069 -0.038617 0.064780 0.082241 -0.034644 -0.044634 -0.077852 -0.085937 0.085827 0.013376 -0.115370 -0.083672 -0.086803 -0.093603 0.063793
-0.034178 -0.133527 0.169132 -0.175621 0.093816 0.133307 0.104351 0.032765 -0.027745 0.066557 0.243070 -0.082628 0.011258 0.094795 -0.012386 0.014668
0.178504 -0.245918 0.020167 -0.031075 0.080018 0.004778 0.101562 -0.028550 0.041986 -0.137690 0.060270 0.111107 0.127328 0.045687 0.195985 0.045225
-0.014348 0.042552 -0.014795 0.021334 -0.010930 -0.005188 -0.020656 0.022201 -0.013914 -0.031557 0.008641 0.008452 0.012521 0.010578 -0.016690 -0.032979
-0.370951 0.410951 -0.226187 0.478795 -0.229433 -0.260737 -0.254935 0.400650 -0.406690 -0.309475 0.035189 0.380811 0.373491 0.321167 -0.380025 -0.364843
0.126068 0.030795 -0.131938 0.201891 0.162040 -0.146589 -0.202583 -0.058048 0.120528 0.068733 -0.129146 -0.041132 0.153562 -0.178891 -0.006749 0.144267
-0.165769 0.158284 -0.029233 0.138118 -0.095395 -0.038041 -0.058564 0.176341 -0.148762 -0.059901 0.049936 0.146002 0.104034 0.112557 -0.141282 -0.111167
0.032591 -0.052132 -0.031750 -0.044970 -0.064011 -0.019438 0.069886 0.041174 -0.047830 0.053589 -0.036190 0.094264 -0.019248 0.055243 -0.006446 0.016854
0.265615 -0.213850 -0.207527 0.253380 0.207295 -0.174581 -0.238862 -0.116131 0.427418 -0.248336 -0.140321 0.089576 0.533715 -0.189012 0.291832 0.158713
0.016454 -0.019825 -0.016955 0.030963 0.014674 -0.011469 -0.039925 -0.006418 0.073529 -0.049864 0.000211 0.017893 0.070264 -0.040078 0.054415 0.033218
0.094093 -0.175045 -0.186180 0.142826 0.089637 -0.155076 -0.198420 -0.094259 0.219957 -0.159454 -0.095569 0.040601 0.222376 -0.180827 0.186340 0.112209
0.015818 -0.102870 -0.054857 -0.136758 -0.109381 -0.064836 0.182804 0.126449 -0.048359 0.124541 -0.046263 0.154960 -0.033495 0.129227 -0.020753 0.086429
-0.105191 0.022487 0.085555 0.023031 -0.049496 0.090584 -0.033874 -0.028157 0.048360 -0.024600 -0.027977 -0.047675 -0.029259 -0.034461 0.042224 -0.031303
0.155445 -0.020934 0.038028 -0.071808 0.022706 0.024699 0.110713 -0.070241 -0.125141 0.011503 0.045173 -0.015066 -0.153010 0.058672 -0.014679 -0.080605
-1.368411 -1.177118 1.446084 -1.102040 0.665987 1.681927 1.063775 1.359740 1.684364 1.443852 1.500545 -1.212267 1.466210 0.956840 -1.236761 1.255162
0.039421 0.019894 0.058402 0.008229 0.034039 0.029574 0.044801 -0.002967 -0.057181 0.044988 0.106890 -0.047301 -0.037381 0.044616 -0.004987 -0.004690
0.064749 0.441398 -0.132298 0.231271 -0.021782 -0.140058 -0.094591 0.025190 -0.350173 0.184958 -0.006477 -0.027712 -0.081069 0.052694 -0.236589 -0.026063
-0.073509 0.179894 0.137346 0.030759 -0.020456 0.129808 -0.055431 -0.041124 -0.005936 0.125003 0.008119 -0.207550 -0.165656 -0.080220 -0.003827 0.019923
0.016025 0.059943 -0.002825 0.026112 0.011955 -0.014779 -0.019253 -0.019318 -0.033241 0.069986 -0.004401 -0.034040 -0.024005 -0.006747 -0.062263 0.003443
0.094398 -0.083276 0.111877 -0.075365 0.099630 0.074408 0.121825 -0.028504 -0.177873 -0.065508 0.133591 -0.035582 -0.047313 0.129898 0.101616 -0.123218
0.005287 0.010021 -0.010704 0.009179 0.007655 0.004996 0.003908 0.012915 0.006264 0.022216 -0.003789 -0.007520 -0.004638 0.006106 -0.022259 0.018471
-0.176164 0.187603 0.070235 0.052579 0.060365 0.079393 0.021997 -0.017844 -0.193361 0.022510 0.251952 -0.123511 -0.067964 0.227702 -0.233803 -0.146253
0.095255 -0.193140 -0.109981 0.057177 0.017878 -0.091493 -0.016838 -0.041008 0.191313 -0.141345 -0.101205 0.085163 0.168509 -0.078544 0.176292 0.056887
0.017873 -0.024192 -0.026322 -0.026065 -0.038374 -0.011213 0.042205 0.024174 -0.015987 0.019052 -0.029532 0.069785 -0.017799 0.028491 0.006260 0.036456
0.049671 0.333435 0.335906 0.090650 0.014789 0.434174 -0.178427 -0.409410 0.133488 -0.232668 -0.088332 -0.333295 -0.400871 -0.383291 0.494358 -0.333905
0.010280 -0.008304 -0.013464 -0.003654 -0.012882 -0.017261 0.027801 0.002708 -0.011515 0.003907 -0.009839 0.029619 -0.010424 0.022045 0.014146 -0.000632
0.539497 -1.176555 1.041574 -0.526158 1.400565 0.862152 0.457399 0.514356 1.567468 1.024205 1.496091 -1.227526 1.254607 -0.121254 0.054689 1.415937
0.032292 0.008046 -0.011021 0.046672 0.043082 -0.034940 -0.036101 -0.024558 0.004684 0.002900 -0.004796 0.003394 0.003577 -0.021649 0.013554 0.017823
0.264589 -0.151701 0.245397 0.089880 0.318107 0.262120 0.066316 -0.131018 0.103080 -0.269515 0.340856 -0.137580 0.128230 0.101323 0.404711 -0.196569
0.689350 -0.472557 0.531322 -0.250650 0.681311 0.523877 0.360381 -0.579566 -0.081423 -0.517278 0.638838 -0.333129 -0.298178 0.144013 0.891041 -0.412562
0.023448 0.000936 -0.007201 0.011953 0.005830 -0.018288 -0.014306 -0.009149 -0.002892 0.006251 -0.013374 0.012957 0.000676 -0.013988 0.005540 0.004560
-0.035696 0.006157 0.008162 0.054639 -0.035200 0.014836 -0.009055 0.005348 -0.014923 -0.036681 0.003040 0.039801 0.025849 0.024644 0.022106 -0.031510
0.169905 0.203450 -0.191638 0.171051 0.040084 -0.151783 -0.088016 -0.143365 -0.072295 0.167034 -0.178918 0.028623 -0.120150 -0.109017 0.039878 0.146813
0.109602 0.009964 0.000585 -0.257167 -0.184469 -0.025492 0.322772 0.149928 -0.189806 0.457560 -0.184265 0.112635 -0.304219 0.032660 -0.108559 0.334103
-0.001905 0.029615 -0.007151 0.024367 -0.001477 -0.004441 -0.002893 -0.008799 -0.019310 0.008112 0.005092 0.010709 0.016354 0.012339 0.004841 -0.005364
-0.023844 -0.073569 0.150935 -0.061389 0.062146 0.124778 0.069568 0.024073 -0.031159 0.001426 0.137923 -0.089133 0.005444 0.079579 0.010641 -0.027356
0.023855 0.042366 0.020734 0.010746 0.033953 0.015131 0.026852 -0.014005 -0.020165 0.021420 0.023147 -0.024860 -0.043389 0.034781 0.003493 0.002698
-0.139245 -0.005037 0.044213 -0.059792 -0.041194 0.044854 0.032705 0.130332 0.023846 0.046816 0.051011 0.000194 0.082677 0.072342 -0.097680 0.029295
-0.078344 -0.043787 0.061407 -0.008050 0.000159 0.064658 0.005994 0.030325 0.022343 0.027283 0.031820 -0.035701 0.033628 -0.006465 -0.036019 0.037664
0.113095 0.278248 0.026329 0.148597 0.189567 0.017745 -0.068084 -0.170178 -0.044984 0.212255 0.061773 -0.208386 -0.168490 -0.191159 -0.128537 0.113256
0.487364 -0.235580 -0.084869 0.253304 0.524478 -0.081565 -0.187638 -0.419815 0.121693 -0.437637 0.103160 -0.140169 0.213968 -0.225324 0.384836 -0.039575
-0.000658 -0.010625 0.021859 -0.007395 0.025686 0.026314 0.016499 -0.006740 0.041604 -0.025661 0.046140 0.002384 0.033716 0.019287 0.049509 0.004686
0.109852 -0.090502 -0.033220 0.150412 0.249158 -0.076546 -0.072748 -0.019680 0.273985 0.117362 0.089905 -0.138184 0.247723 -0.159805 -0.057334 0.298704
0.024674 -0.140894 -0.141111 -0.105104 -0.058069 -0.140241 0.113242 0.117337 -0.089072 0.144563 -0.163950 0.129410 0.018689 0.032162 -0.036266 0.140222
-0.045752 -0.036579 0.057692 -0.081820 -0.079339 0.015864 0.119947 0.123951 0.016724 0.146558 0.038494 0.028926 -0.005856 0.092058 -0.054360 0.112138
0.092744 0.096061 0.001964 0.024313 0.098098 0.009391 0.016834 -0.044022 -0.090911 0.087602 0.053728 -0.043615 -0.076763 0.011059 -0.032006 0.015635
0.028842 -0.009662 0.015287 -0.016690 0.029713 0.011816 0.006436 -0.014005 -0.036362 -0.006110 0.031652 -0.016893 -0.016004 0.013436 0.020094 -0.014784
-0.111227 0.068259 0.098377 -0.006767 -0.085725 0.161725 -0.028126 -0.035777 0.117039 -0.045837 -0.012825 -0.051225 -0.068209 -0.073501 0.058147 -0.082092
-0.000279 0.005246 0.024758 -0.009932 0.003686 0.019225 0.010489 0.019301 0.034083 0.008290 0.034578 -0.020305 0.018836 0.014299 -0.001743 0.025273
-0.136243 0.031090 0.124266 0.006166 -0.035815 0.148112 -0.045755 0.008987 0.191311 -0.003878 -0.021886 -0.151529 0.089778 -0.107090 0.046616 -0.019254
-0.190456 0.088660 0.196356 0.055808 -0.191100 0.243516 -0.004718 0.011335 0.217216 0.022479 -0.038508 -0.071433 -0.093044 -0.071297 0.209124 -0.103307
-0.015839 0.029301 0.007658 -0.012180 -0.062068 0.000800 0.021486 0.011882 0.021170 0.032368 -0.028612 0.024088 -0.029830 0.001901 -0.001553 0.021055
-0.006260 0.031700 -0.008109 0.011467 -0.017484 -0.003296 0.047386 0.030411 0.016609 0.076338 -0.012397 0.030670 -0.044131 -0.010633 -0.037224 0.049288
0.034564 -0.021850 0.037216 -0.024558 0.113612 0.038790 0.014043 -0.010970 0.061071 0.069463 0.102270 -0.106945 0.037224 -0.017667 -0.060550 0.084275
0.050531 -0.094796 -0.015127 0.062504 0.035994 -0.015418 -0.022179 -0.046414 0.103099 -0.078204 -0.019873 0.021855 0.082754 -0.052911 0.117717 0.023803
-0.057532 -0.040052 0.083674 0.017899 0.026389 0.082865 0.114179 0.045084 0.090851 0.108461 0.017502 -0.116085 -0.055929 -0.021635 -0.045899 0.101214
-0.328200 0.388712 0.338724 0.083822 -0.344727 0.431449 -0.159060 -0.255622 0.453344 -0.157387 -0.279440 -0.158303 -0.338717 -0.322228 0.284549 -0.291272
-0.056581 0.103331 -0.057550 0.036032 -0.115153 -0.068705 -0.020950 0.094827 -0.141004 0.035122 -0.001129 0.081365 -0.000545 0.084992 -0.111795 -0.034873
0.028822 0.207077 0.077885 0.051544 0.057758 0.078584 -0.080751 -0.103666 -0.020608 0.099634 -0.018137 -0.178789 -0.179677 -0.139059 -0.068717 0.037645
0.489497 -0.370325 -0.870573 -0.162248 -0.517423 -0.904767 0.418998 0.639283 -0.282521 0.805706 -0.777052 1.071009 0.103992 0.155067 -0.469035 0.871974
0.224231 -0.219721 -0.300752 0.270911 0.240506 -0.295145 -0.276779 -0.191891 0.296346 -0.124435 -0.155948 0.049445 0.376608 -0.259290 0.197889 0.163538
-0.062915 0.022655 -0.056328 -0.010229 -0.083418 -0.059872 0.044344 0.125782 -0.073792 -0.006069 -0.012488 0.105335 0.020362 0.060771 -0.057584 -0.006628
-0.001231 -0.032246 -0.001275 -0.048346 -0.036884 -0.010380 0.068738 0.031708 -0.031127 0.024429 0.005661 0.010199 -0.000513 0.039332 -0.002096 0.036685
-0.009511 0.029843 -0.040205 0.047158 0.002096 -0.040897 0.000398 0.068524 -0.117610 0.015312 0.023321 0.074538 0.068389 0.059537 -0.083381 -0.051431
-0.118334 0.099811 0.069986 0.011078 -0.153677 0.092944 -0.067125 -0.033832 0.082963 -0.016980 -0.065165 -0.012394 -0.045302 -0.057591 0.065482 -0.016745
0.011015 -0.014055 -0.029008 -0.062468 -0.082373 -0.035728 0.081550 0.043408 -0.021555 0.081242 -0.054023 0.083935 -0.031700 0.027833 -0.018926 0.033495
0.233169 -0.174707 0.033267 -0.144658 0.162856 0.034794 0.184594 -0.143649 -0.295856 -0.249876 0.175638 0.028986 -0.183287 0.190728 0.205211 -0.316745
-0.505500 0.086140 0.186194 -0.125184 -0.349503 0.159025 0.275314 0.616731 -0.084915 -0.401714 0.286878 0.345192 0.321573 0.797029 -0.143493 -0.570838
0.037994 -0.031360 -0.011840 0.024804 0.038306 -0.014140 -0.021702 -0.022938 0.044974 -0.066639 -0.015540 0.029261 0.065016 -0.019209 0.080207 -0.000007
0.032765 -0.038029 -0.055762 -0.065846 -0.079627 -0.042051 0.060521 0.072641 -0.044610 0.091460 -0.059710 0.087486 -0.040314 0.028551 -0.011210 0.050020
0.202561 0.176100 0.020826 0.134890 0.220949 0.024730 -0.036469 -0.169746 -0.175692 0.075557 0.088021 -0.162572 -0.137563 -0.076962 -0.056710 0.018407
0.046958 -0.059662 -0.062386 0.078568 0.054460 -0.078540 -0.013286 0.011508 -0.048814 0.014475 0.003805 0.067518 0.097058 0.010915 -0.030919 -0.022461
-0.057551 0.034295 0.059088 0.016266 -0.040243 0.031420 -0.012097 -0.000825 0.023191 -0.021931 -0.018265 -0.013937 -0.006887 -0.000536 0.040629 -0.046009
0.016194 0.004668 -0.000001 0.020958 0.014762 0.000000 -0.014838 -0.020747 -0.000000 0.019553 0.001286 -0.028260 0.000535 -0.021119 -0.008346 -0.004903
-0.007164 -0.004005 0.001870 -0.001061 0.000003 -0.003486 0.000328 -0.001532 0.005089 0.001352 -0.000002 -0.003904 -0.006411 -0.002560 0.003046 -0.005468
0.009951 -0.069839 0.015139 0.017041 -0.024430 0.017516 0.015751 -0.003353 0.091260 -0.055036 -0.012503 -0.000534 0.047683 -0.002313 0.101286 -0.008495
-0.074068 -0.062831 0.072961 -0.047689 0.034300 0.029979 0.044701 0.057334 0.118158 0.116410 0.050331 -0.025149 0.021685 0.006034 -0.102419 0.080409
0.131238 -0.008560 -0.045475 -0.037752 0.032602 -0.047927 0.133418 -0.020799 -0.163338 0.165861 -0.001373 -0.024239 -0.211952 -0.003594 -0.072646 0.107225
0.041068 -0.031603 -0.016271 0.012253 0.028228 -0.022632 -0.011661 0.004691 0.024481 -0.056810 -0.000016 0.038308 0.051533 -0.011676 0.054110 0.012581
-0.052756 0.196764 0.041997 0.134796 -0.091867 0.021347 0.026191 0.117625 -0.119908 0.044650 0.056451 0.050604 -0.061451 0.146375 -0.160058 -0.056123
-0.030622 0.006780 0.004924 -0.019922 -0.052395 -0.017705 0.035845 0.004375 -0.027360 0.034326 -0.021359 0.026743 -0.070821 -0.016195 0.004722 0.009367
-0.352929 0.400929 -0.132880 0.582449 -0.276757 -0.124716 -0.332568 0.239684 -0.006161 -0.238173 -0.020324 0.196867 0.349786 0.082870 -0.159473 -0.245902
-0.000073 0.025567 0.014818 0.005362 -0.005294 0.027775 0.007731 -0.015224 0.016498 0.006130 -0.041354 -0.001144 -0.024446 0.023852 0.012132 0.001372
-0.025205 0.224998 -0.057233 0.087478 -0.065284 -0.032995 -0.050489 0.056613 -0.140027 0.058860 -0.017710 0.043475 -0.015309 0.037517 -0.021940 -0.042999
0.019446 -0.276180 -0.082570 -0.199207 -0.148723 -0.086432 0.185765 0.122915 -0.020575 0.082661 -0.084358 0.238904 0.080700 0.093366 0.061574 0.152276
-0.185798 0.250212 0.152828 0.112208 -0.159278 0.220989 -0.085179 -0.087403 0.093589 0.077467 -0.126471 -0.176245 -0.253449 -0.137881 0.105391 -0.128782
0.211370 0.434288 -0.357027 0.307971 0.247037 -0.304431 -0.312627 -0.366517 -0.344986 0.168635 -0.297853 0.002478 -0.255694 -0.340446 -0.048695 0.165469
0.083283 -0.112200 0.047843 -0.082560 0.034474 0.019680 0.146061 -0.013324 -0.102407 0.011641 0.069623 0.036064 -0.096002 0.069703 0.072598 -0.025321
0.000000 -0.000000 -0.000000 0.000001 0.000000 -0.000000 0.000000 -0.000000 -0.000000 0.000000 -0.000000 -0.000001 0.000000 0.000000 -0.000001 -0.000001
-0.092070 0.131035 -0.040976 0.104535 -0.028620 -0.059643 -0.096615 0.047860 -0.016604 -0.129389 0.005002 0.048117 0.109580 0.055903 -0.075860 -0.133342
0.003447 0.072884 0.012217 0.066571 0.061634 0.023989 -0.053317 -0.005366 0.029789 0.047410 0.011662 -0.118310 -0.033431 -0.069072 -0.045357 0.054231
-0.127891 0.115985 -0.041008 0.073106 -0.157314 -0.036747 -0.029699 0.090966 -0.153360 -0.135827 0.017292 0.118739 0.072646 0.134803 -0.071522 -0.164852
-0.159436 0.155933 -0.044605 0.128901 -0.147375 -0.036539 -0.039752 0.151887 -0.138698 -0.126661 0.031791 0.108039 0.120069 0.138270 -0.093144 -0.140678
-0.059148 0.128267 0.015707 0.118097 -0.002618 -0.002720 -0.090099 -0.030644 -0.071465 -0.255655 0.030371 0.051825 0.079109 0.069919 0.036124 -0.292384
0.014876 -0.214393 -0.116494 -0.187690 -0.078799 -0.096320 0.118533 0.150279 0.049499 0.077479 -0.065904 0.207079 0.132719 0.114769 0.006063 0.175731
-0.055077 0.032835 -0.003968 -0.059086 -0.047806 0.000812 0.052404 0.054972 -0.109140 -0.017724 0.045919 0.048255 -0.037273 0.093829 -0.020273 -0.089914
-0.005913 0.051842 0.028548 0.042068 0.041972 -0.007566 -0.020666 0.009295 0.018019 0.056053 0.041233 -0.038034 0.040025 -0.018969 -0.029387 0.079888
-0.197965 0.276709 -0.122027 0.246758 -0.186777 -0.107478 -0.138359 0.216629 -0.174119 -0.142150 0.049714 0.209559 0.243454 0.209975 -0.163981 -0.266994
0.009368 -0.002092 -0.014477 0.008217 0.007478 -0.005877 0.005009 -0.004862 0.005041 -0.023487 -0.003997 0.021598 0.037931 -0.007860 0.029316 0.025487
-0.023551 -0.205981 -0.058123 0.055085 0.106667 -0.067523 -0.164989 0.035700 0.354731 -0.016015 0.041348 -0.069467 0.338366 -0.171909 0.027936 0.227828
1.512264 -1.103524 1.195639 -1.063561 1.462250 1.245701 1.249576 -1.207425 -1.183090 -1.339579 1.735924 -0.773850 -1.116580 1.147644 1.495380 -1.339349
0.000004 0.000000 0.004749 0.000001 0.002305 0.009954 0.004883 0.017501 0.015931 0.001008 0.025436 -0.000000 0.009113 0.005165 0.000000 0.018962
0.149943 -0.130710 -0.109232 0.066231 0.104022 -0.091615 -0.054870 -0.096210 0.146695 -0.137663 -0.065422 0.008105 0.128708 -0.085023 0.132656 0.068174
-0.046312 0.017741 -0.020988 0.033514 -0.036166 -0.031559 -0.018234 0.064588 -0.031405 -0.028925 0.027517 0.033309 0.049032 0.050489 -0.025714 -0.045851
0.063332 -0.095172 -0.067080 -0.121127 -0.044758 -0.036325 0.100907 0.099663 -0.057982 0.130608 -0.044295 0.137146 -0.126131 0.063840 0.002388 0.117404
-0.241018 0.076205 0.165113 -0.306522 -0.412432 0.161311 0.200699 0.081909 0.022118 0.270627 -0.231272 0.030102 -0.443351 -0.092393 0.142748 0.004619
-0.016730 -0.016013 0.027475 0.004018 0.003448 -0.001585 0.000111 0.026091 0.003796 0.000333 0.021575 0.005462 0.013744 0.000228 -0.022242 0.011947
0.166344 -0.167426 -0.055850 0.039032 0.132043 -0.046781 -0.015006 0.086365 -0.048954 -0.180223 0.255870 0.074161 0.301117 0.150422 0.110631 -0.065374
0.033664 0.016705 -0.015812 -0.075895 -0.017877 -0.027602 0.052924 0.037058 -0.027593 0.059957 -0.018019 0.013314 -0.059755 0.040118 -0.005359 0.024856
0.001676 0.012066 0.041518 0.014527 -0.017396 0.008728 -0.017707 -0.026369 0.022036 -0.015161 -0.027540 -0.027924 -0.033023 -0.019966 0.005552 -0.025368
-0.481279 0.440396 0.291546 0.192515 -0.357700 0.345510 -0.179737 0.068040 0.365036 0.029290 -0.104152 -0.136011 -0.159617 -0.226859 0.080259 -0.153942
0.105411 -0.197575 -0.059885 -0.064428 -0.054406 -0.137954 0.176565 0.031413 -0.099535 -0.243895 0.068086 0.263841 0.072443 0.258851 0.144251 -0.203848
-0.228624 -0.076456 0.390272 -0.105621 0.139174 0.308859 -0.055117 0.324450 0.628205 0.258843 0.431375 -0.328027 0.513116 -0.072582 0.059371 0.282774
0.194947 -0.102259 0.164714 -0.117219 0.177404 0.140963 0.204298 -0.115896 -0.160011 -0.082230 0.256724 -0.053705 -0.115098 0.188698 0.170889 -0.108474
0.000723 -0.013796 -0.000652 -0.000318 -0.005346 -0.003954 0.006216 0.003445 -0.000000 0.006157 0.001251 0.012556 -0.000061 0.008727 -0.002029 0.001398
0.267857 -0.516480 -0.135089 0.112869 0.225899 -0.147395 -0.017602 -0.032233 0.272543 -0.175868 -0.014506 0.164829 0.367462 -0.071435 0.302109 0.173414
-0.006339 -0.103031 0.046085 -0.187420 0.032557 0.042549 0.165051 0.162560 0.050421 0.267975 0.107260 -0.047819 0.046819 0.096349 -0.232872 0.234204
-0.090709 0.061921 0.109948 0.032107 0.076503 0.099837 -0.046716 0.007859 0.034131 0.100368 0.096284 -0.196771 -0.005998 -0.047493 -0.127279 0.088080
0.032772 -0.030199 0.013783 -0.019686 0.023659 0.025369 0.062506 -0.010541 -0.034089 0.000322 0.036953 0.019637 -0.022198 0.048386 0.028964 0.007169
-0.060152 -0.022581 0.088978 -0.039496 0.021531 0.052560 0.030693 0.027804 0.038060 0.026916 0.059650 -0.064314 0.058120 0.017632 -0.046604 0.029821
0.051267 -0.053104 0.043821 0.024335 0.071062 0.042564 0.025593 -0.057886 0.074319 0.004054 0.070635 -0.026754 0.041351 -0.017141 0.052006 -0.004656
-0.060377 -0.034127 0.061046 -0.010064 -0.006715 0.037931 0.016783 0.038178 0.063572 0.053639 0.071827 -0.012715 0.056540 0.012645 -0.025992 0.010028
-0.082053 0.095289 0.068719 0.060963 -0.014189 0.075456 -0.060482 -0.055487 0.005990 0.026899 -0.043928 -0.096467 -0.069229 -0.092636 -0.020417 -0.002289
0.417289 -0.224597 0.143471 -0.115839 0.360402 0.115063 0.139460 -0.153053 -0.086920 -0.220303 0.242820 0.003629 0.008523 0.138995 0.420149 -0.202563
-0.321800 0.376477 0.226158 0.212223 -0.186107 0.261391 -0.064660 0.007368 0.134984 -0.196014 0.020106 -0.022260 0.034322 0.057236 0.103341 -0.332953
-0.004646 0.040188 0.085775 0.003426 -0.026784 0.061054 0.045816 -0.026951 -0.014590 -0.041884 0.034672 -0.031305 -0.049067 0.011172 0.047297 -0.068472
-0.043937 -0.016225 0.032805 -0.012723 -0.030427 0.018411 0.041075 0.077512 0.039450 0.038742 0.030748 0.003717 0.039977 0.033751 -0.059657 0.049435
-0.145163 -0.043693 0.097487 -0.079682 0.005780 0.068518 0.034692 0.093304 0.169643 0.112311 0.113304 -0.056192 0.082752 0.019047 -0.117435 0.057702
-0.078647 0.060078 0.056427 0.016140 -0.070750 0.028074 -0.025437 -0.027770 0.052446 -0.031890 -0.033597 -0.009064 -0.032619 -0.050791 0.044729 -0.044836
-0.151720 -0.004553 -0.130081 -0.167433 -0.225040 -0.078706 0.153566 0.270351 -0.069493 0.155390 -0.146497 0.285262 -0.018016 0.169042 -0.184199 0.108613
-0.009042 -0.019610 0.028225 -0.026643 0.029132 0.028966 0.003310 0.015987 0.018152 0.032619 0.040720 -0.011518 -0.013567 0.017048 -0.021327 0.003516
-0.086362 0.194784 0.024978 0.112981 -0.023440 0.017331 -0.005969 0.201072 -0.230336 0.030009 0.237101 0.051117 0.101838 0.200708 -0.192457 -0.067965
-0.080138 -0.024609 0.059282 0.045687 -0.003843 0.054551 -0.032823 0.103491 0.108419 0.001381 0.031551 -0.053483 0.136523 0.050054 -0.042453 0.060440
-0.001549 -0.048922 -0.058868 -0.075401 -0.106328 -0.071000 0.122911 0.093584 -0.020349 0.099947 -0.082432 0.059208 -0.013470 0.069991 -0.056251 0.092109
0.053189 0.013653 -0.258827 0.155427 -0.393484 -0.206315 0.031073 -0.014483 0.109869 0.143728 -0.509364 0.380989 -0.219008 -0.228143 0.192715 0.273448
-0.014954 0.024888 0.069433 -0.005046 0.000753 0.039719 0.008057 -0.029350 0.012380 -0.020369 0.013803 -0.019101 -0.046229 0.003161 0.025665 -0.025693
-0.177288 0.223214 0.220461 0.057581 -0.155832 0.208510 -0.076402 -0.065528 -0.050204 -0.135849 -0.047402 -0.025734 -0.163146 -0.030451 0.151225 -0.216246
0.079561 0.062136 0.043351 0.024891 0.114467 0.034921 0.028630 -0.082796 -0.090877 0.066938 0.045164 -0.081245 -0.066430 -0.006019 -0.013118 0.004391
-0.025609 -0.312376 0.212643 -0.611374 0.281639 0.191625 0.630772 0.423518 0.014355 0.746317 0.534369 -0.121570 -0.099653 0.398474 -0.244900 0.597099
0.152319 0.179229 -0.219261 0.167229 0.136508 -0.180455 -0.157001 -0.176050 -0.147264 0.076319 -0.183945 0.030043 -0.081347 -0.175532 -0.016104 0.113713
-0.166217 0.150846 0.316951 -0.098707 -0.110203 0.325494 0.075256 -0.115930 0.023100 0.105696 0.013405 -0.205022 -0.355943 -0.140111 0.188140 -0.165519
-0.143413 0.130576 0.032249 0.074609 -0.128144 0.018309 -0.069208 0.030401 -0.003276 -0.083433 -0.049428 0.035733 0.054509 0.003232 0.001717 -0.111707
0.088498 0.125208 0.149845 0.052146 0.016937 0.169489 -0.043798 -0.171429 0.062922 0.054438 -0.100482 -0.152578 -0.143650 -0.193083 0.190155 0.005094
0.056161 0.312410 0.779647 0.077221 0.111966 0.834001 -0.083553 -0.470462 0.708937 -0.379614 0.076407 -0.437831 -0.228883 -0.276483 0.797945 -0.331963
0.224130 -0.165040 0.244878 -0.149659 0.241490 0.232815 0.144902 -0.083666 0.126676 0.098539 0.232448 -0.117172 -0.082955 -0.027946 0.298915 0.140429
-0.000000 0.000000 0.000001 -0.000001 -0.000002 0.000001 0.000000 0.000001 0.000000 -0.000000 0.000000 0.000000 0.000001 0.000001 0.000001 0.000001
0.002011 -0.179233 -0.121232 -0.212852 -0.217611 -0.068856 0.170626 0.138278 -0.075525 0.123741 -0.128125 0.244160 -0.043124 0.176938 0.039054 0.104484
0.035359 -0.082043 0.113669 -0.054737 0.078412 0.075909 0.104481 0.036788 -0.154903 -0.056910 0.135056 -0.051546 -0.006372 0.097364 0.057605 -0.102014
0.094085 0.158485 -0.047129 -0.001315 0.163076 -0.026292 0.008475 -0.085911 -0.179172 0.331404 0.003734 -0.201435 -0.215701 -0.133070 -0.220687 0.243033
-0.031961 -0.035910 0.033779 -0.039680 0.012318 0.033449 0.011510 0.035811 0.044516 0.013387 0.029971 -0.017514 0.041610 0.012836 -0.025994 0.029466
0.025212 0.127315 0.023464 0.031115 -0.000846 0.003314 -0.037057 -0.031675 -0.045201 0.064304 -0.006012 -0.069008 -0.115165 -0.066382 -0.040061 0.057655
0.133251 0.169520 0.033356 0.046353 0.198598 0.019275 -0.069058 -0.171166 -0.173591 0.104217 0.050845 -0.153761 -0.237577 -0.122774 -0.083140 0.027851
-0.147996 0.170362 -0.029107 0.142688 -0.170766 -0.100438 -0.102125 0.112026 -0.165838 -0.078939 0.021760 0.135478 0.063556 0.128497 -0.122621 -0.136592
0.179879 -0.073337 0.189956 -0.067725 0.186799 0.149430 0.149706 -0.218136 -0.255372 -0.224666 0.187667 -0.060497 -0.155508 0.151595 0.231105 -0.298726
0.144087 -0.061946 0.140724 -0.125804 0.122584 0.114360 0.178535 -0.052084 -0.205593 -0.096019 0.239684 -0.006034 -0.111908 0.197408 0.142650 -0.155210
0.033688 -0.078048 -0.035073 0.017110 -0.001727 -0.045868 -0.014893 -0.045155 0.046633 -0.021233 -0.024478 0.038317 0.051215 -0.005287 0.015677 0.022602
-0.085331 0.053359 0.095628 -0.003186 -0.079803 0.097410 -0.010653 0.007252 0.126507 0.004364 -0.008142 -0.046910 -0.037896 -0.050701 0.013472 0.001232
0.005773 -0.117119 0.121131 -0.109195 0.051680 0.085789 0.132020 0.045488 0.014898 0.052499 0.177242 -0.037291 0.015902 0.110919 0.004194 0.036719
-0.237685 -0.017085 0.223504 -0.134694 -0.140186 0.255988 0.037843 0.138846 0.273795 0.123983 0.075189 -0.077882 0.036281 -0.047166 0.014203 0.083560
-0.334790 0.318722 0.363362 -0.017458 -0.185706 0.337546 0.021316 -0.028789 0.347008 0.016682 0.100126 -0.248491 -0.296560 -0.117957 0.046880 -0.106518
0.032492 -0.022474 -0.027097 0.070437 0.023129 0.009488 -0.056819 -0.043184 0.079320 -0.075304 -0.057333 0.014474 0.042527 -0.056916 0.068305 0.013038
-0.019145 0.319048 -0.142903 0.184639 0.005449 -0.083416 -0.200168 -0.119154 -0.135330 -0.019040 -0.154661 0.004961 -0.117582 -0.119542 0.005129 -0.043943
0.245785 -0.204206 -0.184619 0.233826 0.205709 -0.198593 -0.260143 -0.124239 0.263950 -0.245515 -0.105138 0.073528 0.362401 -0.196040 0.209926 0.015778
-0.244269 0.128587 0.198684 -0.029327 -0.018345 0.129758 0.070241 0.142839 0.132127 0.212581 0.110155 -0.119345 -0.036360 -0.024252 -0.119253 0.096696
-0.191082 0.410634 -0.034175 0.233184 -0.201151 -0.067839 -0.025978 0.296626 -0.667587 -0.045335 0.244029 0.164721 0.045808 0.446063 -0.442946 -0.380539
0.098231 -0.128857 -0.107422 -0.186239 -0.080407 -0.130558 0.185704 0.167407 -0.088607 0.190426 -0.059025 0.148570 -0.090788 0.124160 -0.032082 0.188990
0.730204 -0.185336 -0.343671 0.667944 0.832329 -0.217146 -0.588250 -0.391656 0.733303 0.147363 -0.209160 -0.389383 0.573811 -0.740339 0.187534 0.799637
0.865025 0.580502 0.206220 0.057076 0.944829 0.208209 0.097507 -0.671078 -0.850914 0.266908 0.427372 -0.575291 -0.802425 -0.102883 0.073220 -0.059055
0.171890 0.261593 -0.056597 0.150652 0.191716 -0.064019 -0.113228 -0.177931 -0.143463 0.186878 -0.025893 -0.196237 -0.154302 -0.154496 -0.069000 0.080810
-0.048425 0.009972 0.024770 -0.007177 -0.024066 0.022071 0.004605 0.016735 0.023536 -0.002207 -0.009042 -0.007568 -0.002598 0.011516 -0.005908 -0.005840
0.006448 -0.022995 0.004753 -0.023942 -0.025488 -0.013641 0.044277 0.039024 0.011484 0.009021 -0.004997 0.046335 0.021398 0.008239 0.002304 0.016393
0.000000 -0.000000 -0.000000 0.000000 -0.000000 -0.000000 0.000000 -0.000000 0.000000 -0.000000 0.000001 -0.000000 -0.000001 0.000000 -0.000000 0.000001
-0.001853 0.076491 0.004838 0.050704 -0.046100 0.006953 0.013891 0.053004 -0.067007 -0.047709 0.067655 0.064942 0.016807 0.123324 -0.006165 -0.083052
0.066068 0.008041 -0.189408 -0.114488 -0.073501 -0.135409 0.083852 0.104456 -0.176616 0.284589 -0.102933 0.093675 -0.170598 0.016240 -0.184860 0.195384
0.072678 -0.071788 0.036921 -0.084358 0.072491 0.069317 0.091587 -0.028491 -0.031229 -0.059768 0.090777 0.049725 -0.004630 0.078283 0.116897 -0.061670
0.000644 -0.000637 -0.000774 -0.000844 -0.002516 -0.003149 0.005329 0.003281 -0.008736 -0.001312 0.004767 0.006507 -0.002232 0.000897 0.001150 0.000068
0.013121 -0.026303 0.008944 -0.039151 0.040982 0.019500 0.029555 -0.003633 -0.047345 -0.021196 0.046708 -0.001621 -0.009398 0.021174 0.037963 -0.031766
-0.043307 -0.064037 0.023191 -0.066846 -0.008157 0.004010 0.059983 0.036175 0.019561 0.008987 -0.003775 0.007422 0.021465 0.042283 -0.009096 0.011338
